{"learner":{"attributes":{},"feature_names":[],"feature_types":[],"gradient_booster":{"model":{"cats":{"enc":[],"feature_segments":[],"sorted_idx":[]},"gbtree_model_param":{"num_parallel_tree":"1","num_trees":"393"},"iteration_indptr":[0,1,2,3,4,5,6,7,8,9,10,11,12,13,14,15,16,17,18,19,20,21,22,23,24,25,26,27,28,29,30,31,32,33,34,35,36,37,38,39,40,41,42,43,44,45,46,47,48,49,50,51,52,53,54,55,56,57,58,59,60,61,62,63,64,65,66,67,68,69,70,71,72,73,74,75,76,77,78,79,80,81,82,83,84,85,86,87,88,89,90,91,92,93,94,95,96,97,98,99,100,101,102,103,104,105,106,107,108,109,110,111,112,113,114,115,116,117,118,119,120,121,122,123,124,125,126,127,128,129,130,131,132,133,134,135,136,137,138,139,140,141,142,143,144,145,146,147,148,149,150,151,152,153,154,155,156,157,158,159,160,161,162,163,164,165,166,167,168,169,170,171,172,173,174,175,176,177,178,179,180,181,182,183,184,185,186,187,188,189,190,191,192,193,194,195,196,197,198,199,200,201,202,203,204,205,206,207,208,209,210,211,212,213,214,215,216,217,218,219,220,221,222,223,224,225,226,227,228,229,230,231,232,233,234,235,236,237,238,239,240,241,242,243,244,245,246,247,248,249,250,251,252,253,254,255,256,257,258,259,260,261,262,263,264,265,266,267,268,269,270,271,272,273,274,275,276,277,278,279,280,281,282,283,284,285,286,287,288,289,290,291,292,293,294,295,296,297,298,299,300,301,302,303,304,305,306,307,308,309,310,311,312,313,314,315,316,317,318,319,320,321,322,323,324,325,326,327,328,329,330,331,332,333,334,335,336,337,338,339,340,341,342,343,344,345,346,347,348,349,350,351,352,353,354,355,356,357,358,359,360,361,362,363,364,365,366,367,368,369,370,371,372,373,374,375,376,377,378,379,380,381,382,383,384,385,386,387,388,389,390,391,392,393],"tree_info":[0,0,0,0,0,0,0,0,0,0,0,0,0,0,0,0,0,0,0,0,0,0,0,0,0,0,0,0,0,0,0,0,0,0,0,0,0,0,0,0,0,0,0,0,0,0,0,0,0,0,0,0,0,0,0,0,0,0,0,0,0,0,0,0,0,0,0,0,0,0,0,0,0,0,0,0,0,0,0,0,0,0,0,0,0,0,0,0,0,0,0,0,0,0,0,0,0,0,0,0,0,0,0,0,0,0,0,0,0,0,0,0,0,0,0,0,0,0,0,0,0,0,0,0,0,0,0,0,0,0,0,0,0,0,0,0,0,0,0,0,0,0,0,0,0,0,0,0,0,0,0,0,0,0,0,0,0,0,0,0,0,0,0,0,0,0,0,0,0,0,0,0,0,0,0,0,0,0,0,0,0,0,0,0,0,0,0,0,0,0,0,0,0,0,0,0,0,0,0,0,0,0,0,0,0,0,0,0,0,0,0,0,0,0,0,0,0,0,0,0,0,0,0,0,0,0,0,0,0,0,0,0,0,0,0,0,0,0,0,0,0,0,0,0,0,0,0,0,0,0,0,0,0,0,0,0,0,0,0,0,0,0,0,0,0,0,0,0,0,0,0,0,0,0,0,0,0,0,0,0,0,0,0,0,0,0,0,0,0,0,0,0,0,0,0,0,0,0,0,0,0,0,0,0,0,0,0,0,0,0,0,0,0,0,0,0,0,0,0,0,0,0,0,0,0,0,0,0,0,0,0,0,0,0,0,0,0,0,0,0,0,0,0,0,0,0,0,0,0,0,0,0,0,0,0,0,0,0,0,0,0,0,0,0,0,0,0,0,0,0,0,0,0,0,0,0,0,0,0,0,0,0,0,0,0,0,0,0,0,0,0,0,0],"trees":[{"base_weights":[4.198596E-5,3.9670356E-3,-3.785938E-2,1.6447114E-4,3.363315E-2,-5.3686325E-2,-3.8063666E-3,-6.1238367E-2,1.0981616E-3,7.718504E-2,1.0429738E-3,-4.5895547E-2,-1.7394134E-1,5.5174164E-2,-1.4533752E-2,-1.09834515E-1,-2.057371E-2,5.5202185E-3,-1.3940148E-2,1.3973425E-1,4.4681296E-2,2.8942928E-2,-1.3828383E-2,-5.6667477E-2,1.1608497E-2,-1.2625726E-1,-2.2261393E-1,8.898798E-2,1.0219598E-2,2.5305457E-3,-3.6171466E-2,-4.2639114E-3,-1.1008906E-2,4.155777E-3,-3.083169E-3,2.20082E-3,1.2305265E-4,1.0733317E-4,-2.7566897E-3,5.250615E-3,1.6066888E-2,9.386444E-3,2.4310944E-3,1.07788965E-2,3.3905116E-4,1.4776059E-3,-1.7062662E-3,-3.0286333E-3,-9.347149E-3,5.319033E-3,-3.836649E-3,-5.018327E-3,-1.2159832E-2,-2.2956159E-2,-1.6796488E-2,6.4328145E-3,1.2594509E-2,-1.5548128E-6,4.337627E-3,2.8692791E-3,-3.1498712E-4,-2.073432E-2,-2.7810142E-3],"categories":[],"categories_nodes":[],"categories_segments":[],"categories_sizes":[],"default_left":[1,1,0,0,0,0,0,0,0,0,0,0,1,0,1,1,0,1,1,0,0,0,0,0,0,1,0,1,0,0,0,0,0,0,0,0,0,0,0,0,0,0,0,0,0,0,0,0,0,0,0,0,0,0,0,0,0,0,0,0,0,0,0],"id":0,"left_children":[1,3,5,7,9,11,13,15,17,19,21,23,25,27,29,31,33,35,37,39,41,43,45,47,49,51,53,55,57,59,61,-1,-1,-1,-1,-1,-1,-1,-1,-1,-1,-1,-1,-1,-1,-1,-1,-1,-1,-1,-1,-1,-1,-1,-1,-1,-1,-1,-1,-1,-1,-1,-1],"loss_changes":[3.032977E2,2.0840598E2,1.0311194E2,9.388197E1,2.9792148E2,1.2235358E2,3.8410698E1,4.846335E1,1.07267105E2,1.8263995E2,4.9815193E1,7.598706E1,1.8395615E1,1.41975E1,1.8967455E1,1.3276978E1,1.4664692E1,1.0362631E2,1.034657E2,1.18824524E2,6.24824E1,1.0220512E2,1.5395452E1,1.15925354E2,5.6234837E1,4.5971527E0,4.5555267E0,4.147785E0,1.6824106E0,5.6144443E0,1.5931686E1,0E0,0E0,0E0,0E0,0E0,0E0,0E0,0E0,0E0,0E0,0E0,0E0,0E0,0E0,0E0,0E0,0E0,0E0,0E0,0E0,0E0,0E0,0E0,0E0,0E0,0E0,0E0,0E0,0E0,0E0,0E0,0E0],"parents":[2147483647,0,0,1,1,2,2,3,3,4,4,5,5,6,6,7,7,8,8,9,9,10,10,11,11,12,12,13,13,14,14,15,15,16,16,17,17,18,18,19,19,20,20,21,21,22,22,23,23,24,24,25,25,26,26,27,27,28,28,29,29,30,30],"right_children":[2,4,6,8,10,12,14,16,18,20,22,24,26,28,30,32,34,36,38,40,42,44,46,48,50,52,54,56,58,60,62,-1,-1,-1,-1,-1,-1,-1,-1,-1,-1,-1,-1,-1,-1,-1,-1,-1,-1,-1,-1,-1,-1,-1,-1,-1,-1,-1,-1,-1,-1,-1,-1],"split_conditions":[-2.4812818E-3,-1.3398379E-2,7.6016188E-3,-3.812337E-2,-1.0182619E-2,6.443262E-5,1.44376755E-2,3.4689903E-5,7.420778E-5,4.7028065E-5,-4.9274266E-3,-1.51159465E-2,-1.08570844E-1,8.395743E-2,1.7805994E-2,-2.6527703E-1,-1.05193555E-1,-2.8347313E-2,-4.9274266E-3,3.6537647E-5,-2.650411E-1,-5.9148997E-2,-6.802121E-2,-1.8544108E-2,-1.4116466E-2,-4.3756825E-1,4.686194E-1,-1.8684131E-1,4.194184E-1,1.7285347E-4,-2.0426208E-1,-4.2639114E-3,-1.1008906E-2,4.155777E-3,-3.083169E-3,2.20082E-3,1.2305265E-4,1.0733317E-4,-2.7566897E-3,5.250615E-3,1.6066888E-2,9.386444E-3,2.4310944E-3,1.07788965E-2,3.3905116E-4,1.4776059E-3,-1.7062662E-3,-3.0286333E-3,-9.347149E-3,5.319033E-3,-3.836649E-3,-5.018327E-3,-1.2159832E-2,-2.2956159E-2,-1.6796488E-2,6.4328145E-3,1.2594509E-2,-1.5548128E-6,4.337627E-3,2.8692791E-3,-3.1498712E-4,-2.073432E-2,-2.7810142E-3],"split_indices":[9,180,183,183,180,0,183,0,0,0,9,180,420,14,183,18,394,180,9,0,190,182,394,180,180,18,147,132,14,296,395,0,0,0,0,0,0,0,0,0,0,0,0,0,0,0,0,0,0,0,0,0,0,0,0,0,0,0,0,0,0,0,0],"split_type":[0,0,0,0,0,0,0,0,0,0,0,0,0,0,0,0,0,0,0,0,0,0,0,0,0,0,0,0,0,0,0,0,0,0,0,0,0,0,0,0,0,0,0,0,0,0,0,0,0,0,0,0,0,0,0,0,0,0,0,0,0,0,0],"sum_hessian":[2.038777E6,1.847457E6,1.9132E5,1.637559E6,2.09898E5,1.30613E5,6.0707E4,2.4526E4,1.613033E6,8.9839E4,1.20059E5,1.22668E5,7.945E3,9.341E3,5.1366E4,1.1172E4,1.3354E4,1.246499E6,3.66534E5,3.0719E4,5.912E4,4.1744E4,7.8315E4,1.03315E5,1.9353E4,4.016E3,3.929E3,5.33E3,4.011E3,2.8718E4,2.2648E4,2.807E3,8.365E3,2.468E3,1.0886E4,2.07043E5,1.039456E6,2.01492E5,1.65042E5,1.1975E4,1.8744E4,1.1544E4,4.7576E4,8.458E3,3.3286E4,1.3121E4,6.5194E4,7.4255E4,2.906E4,1.0191E4,9.162E3,8.18E2,3.198E3,1.324E3,2.605E3,4.369E3,9.61E2,3.209E3,8.02E2,4.776E3,2.3942E4,3.6E2,2.2288E4],"tree_param":{"num_deleted":"0","num_feature":"421","num_nodes":"63","size_leaf_vector":"1"}},{"base_weights":[2.6780437E-5,3.6430862E-3,-3.4866374E-2,5.9773303E-3,-2.0682681E-2,-1.1813618E-1,-2.5181167E-2,4.403414E-2,4.7228364E-3,-3.5688166E-2,-1.088874E-2,-1.4294101E-1,-5.465686E-3,-2.1024546E-2,-1.10766865E-1,9.836392E-2,2.689795E-2,-1.3038337E-2,7.327373E-3,-6.284477E-2,-2.5942694E-2,2.1850375E-2,-1.3685803E-2,-8.27141E-2,-1.6892195E-1,-2.3565236E-2,3.1001287E-2,-6.1339606E-2,-1.2272098E-2,-1.732995E-1,-4.5272615E-2,5.2472414E-3,1.4824543E-2,2.905771E-3,-8.549914E-3,-4.3929587E-3,-2.5754503E-5,2.2552724E-3,5.3680582E-5,-2.8452794E-3,-7.812224E-3,-7.388114E-4,-4.775465E-3,9.807275E-4,4.498229E-3,-1.875267E-3,2.6669702E-4,-6.355644E-3,-1.60731E-2,-1.5636887E-2,-1.0968387E-2,-3.2501523E-3,-2.0431782E-4,3.3774362E-3,-1.2806981E-2,-7.5258208E-3,-3.7675616E-3,2.684924E-3,-1.8278959E-3,-2.0730885E-2,-1.2103359E-2,-7.2152526E-3,-1.5949825E-3],"categories":[],"categories_nodes":[],"categories_segments":[],"categories_sizes":[],"default_left":[1,0,0,0,0,0,0,0,0,0,0,0,0,0,0,0,1,0,0,1,1,0,0,0,0,1,1,0,1,0,0,0,0,0,0,0,0,0,0,0,0,0,0,0,0,0,0,0,0,0,0,0,0,0,0,0,0,0,0,0,0,0,0],"id":1,"left_children":[1,3,5,7,9,11,13,15,17,19,21,23,25,27,29,31,33,35,37,39,41,43,45,47,49,51,53,55,57,59,61,-1,-1,-1,-1,-1,-1,-1,-1,-1,-1,-1,-1,-1,-1,-1,-1,-1,-1,-1,-1,-1,-1,-1,-1,-1,-1,-1,-1,-1,-1,-1,-1],"loss_changes":[2.572336E2,1.0488384E2,1.5438138E2,8.046299E1,2.376609E1,5.5738037E1,6.1000786E1,5.006588E1,7.5478096E1,1.6898575E1,8.961519E0,2.5552612E1,2.3771935E0,5.770642E1,3.2512047E1,3.5948303E1,3.845751E1,1.0299183E2,1.835107E2,1.4454201E1,2.4591652E1,2.4686465E0,1.278537E1,4.0672035E0,6.9454956E0,7.504643E-1,1.9232851E0,1.3511566E1,5.47863E1,8.782448E0,4.083939E0,0E0,0E0,0E0,0E0,0E0,0E0,0E0,0E0,0E0,0E0,0E0,0E0,0E0,0E0,0E0,0E0,0E0,0E0,0E0,0E0,0E0,0E0,0E0,0E0,0E0,0E0,0E0,0E0,0E0,0E0,0E0,0E0],"parents":[2147483647,0,0,1,1,2,2,3,3,4,4,5,5,6,6,7,7,8,8,9,9,10,10,11,11,12,12,13,13,14,14,15,15,16,16,17,17,18,18,19,19,20,20,21,21,22,22,23,23,24,24,25,25,26,26,27,27,28,28,29,29,30,30],"right_children":[2,4,6,8,10,12,14,16,18,20,22,24,26,28,30,32,34,36,38,40,42,44,46,48,50,52,54,56,58,60,62,-1,-1,-1,-1,-1,-1,-1,-1,-1,-1,-1,-1,-1,-1,-1,-1,-1,-1,-1,-1,-1,-1,-1,-1,-1,-1,-1,-1,-1,-1,-1,-1],"split_conditions":[-2.4812818E-3,1.08003616E-4,-2.7672619E-2,-1.25E-1,1.10566616E-4,-2.0824075E-3,1.0377169E-4,-3.601387E-2,3.4689903E-5,-6.4442754E-3,-4.206086E-1,4.686864E-1,2.3393267E-1,-2.5802165E-2,4.8431933E-1,-1.3560098E-1,-2.5087297E-3,-2.1751404E-2,-4.9274266E-3,-9.059906E-4,-4.2264163E-3,9.974182E-3,1.8792629E-1,3.9830822E-1,2.9632646E-1,6.1573863E-2,3.2764828E-1,-1.6669178E-1,-2.386567E-2,-2.4677557E-1,4.531077E-1,5.2472414E-3,1.4824543E-2,2.905771E-3,-8.549914E-3,-4.3929587E-3,-2.5754503E-5,2.2552724E-3,5.3680582E-5,-2.8452794E-3,-7.812224E-3,-7.388114E-4,-4.775465E-3,9.807275E-4,4.498229E-3,-1.875267E-3,2.6669702E-4,-6.355644E-3,-1.60731E-2,-1.5636887E-2,-1.0968387E-2,-3.2501523E-3,-2.0431782E-4,3.3774362E-3,-1.2806981E-2,-7.5258208E-3,-3.7675616E-3,2.684924E-3,-1.8278959E-3,-2.0730885E-2,-1.2103359E-2,-7.2152526E-3,-1.5949825E-3],"split_indices":[9,0,408,394,0,9,0,297,0,9,14,378,122,183,159,394,9,183,9,183,9,183,14,14,159,403,419,14,183,14,27,0,0,0,0,0,0,0,0,0,0,0,0,0,0,0,0,0,0,0,0,0,0,0,0,0,0,0,0,0,0,0,0],"split_type":[0,0,0,0,0,0,0,0,0,0,0,0,0,0,0,0,0,0,0,0,0,0,0,0,0,0,0,0,0,0,0,0,0,0,0,0,0,0,0,0,0,0,0,0,0,0,0,0,0,0,0,0,0,0,0,0,0,0,0,0,0,0,0],"sum_hessian":[2.038558E6,1.847125E6,1.91433E5,1.6854E6,1.61725E5,1.9944E4,1.71489E5,5.3782E4,1.631618E6,6.3867E4,9.7858E4,1.6345E4,3.599E3,1.63548E5,7.941E3,1.2894E4,4.0888E4,2.08663E5,1.422955E6,1.6864E4,4.7003E4,7.701E3,9.0157E4,4.928E3,1.1417E4,2.406E3,1.193E3,2.9171E4,1.34377E5,4.061E3,3.88E3,8.729E3,4.165E3,3.866E4,2.228E3,5.1602E4,1.57061E5,3.66957E5,1.055998E6,8.43E3,8.434E3,2.9988E4,1.7015E4,5.793E3,1.908E3,6.0081E4,3.0076E4,4.596E3,3.32E2,8.208E3,3.209E3,1.416E3,9.9E2,1.139E3,5.4E1,1.1133E4,1.8038E4,2.3436E4,1.10941E5,1.218E3,2.843E3,1.548E3,2.332E3],"tree_param":{"num_deleted":"0","num_feature":"421","num_nodes":"63","size_leaf_vector":"1"}},{"base_weights":[-4.2644035E-5,3.2670165E-3,-3.1972155E-2,-2.9332165E-3,1.83734E-2,-1.0792211E-1,-2.3107661E-2,1.8807411E-2,-6.789742E-3,4.0153977E-2,1.7226482E-3,-1.3097398E-1,-2.891991E-3,-3.2079004E-2,1.0319143E-2,-7.858404E-3,3.3829827E-2,-8.053159E-2,-5.523237E-3,3.0410327E-2,1.0712319E-1,1.7657328E-2,-1.7587315E-2,-9.414715E-2,-1.6049497E-1,1.2157997E-1,-7.4201305E-3,-1.7338458E-2,-8.9873746E-2,5.4356672E-2,-8.76478E-3,-8.336081E-3,1.3125797E-3,3.4860186E-3,-3.0331297E-3,-5.1329783E-3,-8.913942E-3,-9.376454E-4,6.5056805E-4,6.411881E-3,1.6795937E-3,1.4159973E-2,6.416504E-3,-1.2608399E-4,4.6082046E-3,-3.498269E-3,-8.368403E-4,-1.3606269E-2,-6.766567E-3,-1.1449372E-2,-1.7446507E-2,2.0728547E-4,2.0973694E-2,-1.2456258E-3,5.3419224E-3,-1.2010237E-3,-1.1826483E-2,-1.2839511E-3,-8.834085E-3,1.1636059E-2,3.1446852E-3,-2.8716195E-3,4.385629E-4],"categories":[],"categories_nodes":[],"categories_segments":[],"categories_sizes":[],"default_left":[1,1,0,0,0,0,0,0,0,0,1,0,0,0,0,0,0,1,0,0,0,1,0,0,1,0,1,0,0,0,0,0,0,0,0,0,0,0,0,0,0,0,0,0,0,0,0,0,0,0,0,0,0,0,0,0,0,0,0,0,0,0,0],"id":2,"left_children":[1,3,5,7,9,11,13,15,17,19,21,23,25,27,29,31,33,35,37,39,41,43,45,47,49,51,53,55,57,59,61,-1,-1,-1,-1,-1,-1,-1,-1,-1,-1,-1,-1,-1,-1,-1,-1,-1,-1,-1,-1,-1,-1,-1,-1,-1,-1,-1,-1,-1,-1,-1,-1],"loss_changes":[2.1545006E2,1.7302368E2,1.2891035E2,1.0981198E2,1.9495354E2,4.844896E1,5.142238E1,7.904699E1,1.0388972E2,1.519679E2,9.374414E1,1.7813751E1,2.0293722E0,1.1516655E2,3.0494644E1,1.5005757E2,6.3895782E1,9.221825E0,7.983106E1,9.7452835E1,5.5673767E1,1.1720659E2,2.5158783E1,6.931328E0,1.0451492E1,1.8857816E0,1.7797755E0,4.178393E1,2.9331863E1,1.5691212E1,8.853715E0,0E0,0E0,0E0,0E0,0E0,0E0,0E0,0E0,0E0,0E0,0E0,0E0,0E0,0E0,0E0,0E0,0E0,0E0,0E0,0E0,0E0,0E0,0E0,0E0,0E0,0E0,0E0,0E0,0E0,0E0,0E0,0E0],"parents":[2147483647,0,0,1,1,2,2,3,3,4,4,5,5,6,6,7,7,8,8,9,9,10,10,11,11,12,12,13,13,14,14,15,15,16,16,17,17,18,18,19,19,20,20,21,21,22,22,23,23,24,24,25,25,26,26,27,27,28,28,29,29,30,30],"right_children":[2,4,6,8,10,12,14,16,18,20,22,24,26,28,30,32,34,36,38,40,42,44,46,48,50,52,54,56,58,60,62,-1,-1,-1,-1,-1,-1,-1,-1,-1,-1,-1,-1,-1,-1,-1,-1,-1,-1,-1,-1,-1,-1,-1,-1,-1,-1,-1,-1,-1,-1,-1,-1],"split_conditions":[-2.4812818E-3,-1.7109185E-2,-2.7672619E-2,-6.880289E-2,-4.9274266E-3,-2.0824075E-3,-1.51159465E-2,-8.395815E-2,-3.812337E-2,-5.2343607E-3,-3.431374E-2,4.6861523E-1,-4.8429552E-1,-1.8544108E-2,-1.4116466E-2,-1.0952175E-2,-1.8280625E-2,-4.591462E-2,9.974182E-3,-2.651977E-1,-1.96699E-1,-3.630218E-2,-4.365653E-3,-1.7128593E-1,-4.8421308E-1,4.3734598E-1,4.3724042E-1,6.443262E-5,-1.863986E-1,-3.9445922E-1,-1.8354356E-3,-8.336081E-3,1.3125797E-3,3.4860186E-3,-3.0331297E-3,-5.1329783E-3,-8.913942E-3,-9.376454E-4,6.5056805E-4,6.411881E-3,1.6795937E-3,1.4159973E-2,6.416504E-3,-1.2608399E-4,4.6082046E-3,-3.498269E-3,-8.368403E-4,-1.3606269E-2,-6.766567E-3,-1.1449372E-2,-1.7446507E-2,2.0728547E-4,2.0973694E-2,-1.2456258E-3,5.3419224E-3,-1.2010237E-3,-1.1826483E-2,-1.2839511E-3,-8.834085E-3,1.1636059E-2,3.1446852E-3,-2.8716195E-3,4.385629E-4],"split_indices":[9,180,408,394,9,9,180,396,183,9,181,93,10,180,180,251,180,418,183,161,14,181,9,17,149,123,390,0,130,14,9,0,0,0,0,0,0,0,0,0,0,0,0,0,0,0,0,0,0,0,0,0,0,0,0,0,0,0,0,0,0,0,0],"split_type":[0,0,0,0,0,0,0,0,0,0,0,0,0,0,0,0,0,0,0,0,0,0,0,0,0,0,0,0,0,0,0,0,0,0,0,0,0,0,0,0,0,0,0,0,0,0,0,0,0,0,0,0,0,0,0,0,0,0,0,0,0,0,0],"sum_hessian":[2.038773E6,1.847292E6,1.91481E5,1.309729E6,5.37563E5,2.0011E4,1.7147E5,1.97325E5,1.112404E6,2.32903E5,3.0466E5,1.6409E4,3.602E3,1.35188E5,3.6282E4,7.1106E4,1.26219E5,1.8781E4,1.093623E6,2.03323E5,2.958E4,1.66919E5,1.37741E5,7.304E3,9.105E3,1.25E2,3.477E3,1.07717E5,2.7471E4,1.0969E4,2.5313E4,1.4584E4,5.6522E4,1.14276E5,1.1943E4,1.0355E4,8.426E3,7.70528E5,3.23095E5,3.8646E4,1.64677E5,1.0192E4,1.9388E4,1.09675E5,5.7244E4,3.3884E4,1.03857E5,1.298E3,6.006E3,5.826E3,3.279E3,6.5E1,6E1,3.153E3,3.24E2,1.04987E5,2.73E3,4.41E3,2.3061E4,1.891E3,9.078E3,9.038E3,1.6275E4],"tree_param":{"num_deleted":"0","num_feature":"421","num_nodes":"63","size_leaf_vector":"1"}},{"base_weights":[-9.285294E-6,3.879692E-2,-1.1786208E-3,-2.4151348E-2,4.9441136E-2,7.193011E-4,-2.1700485E-2,2.2451337E-2,-6.612206E-2,3.9000884E-2,1.10311605E-1,-4.312466E-3,8.919973E-3,-3.899372E-2,-9.709913E-3,-9.089039E-2,3.1627983E-2,2.8674263E-3,-9.114717E-2,4.4305336E-2,-6.348075E-2,3.8369574E-2,1.6074255E-1,-1.498549E-1,-2.524467E-3,3.775324E-2,2.9185228E-3,-2.6006391E-2,-6.0086515E-2,1.9176157E-2,-1.2214502E-2,-5.255122E-3,-1.0820955E-2,3.093355E-4,4.4755675E-3,7.175241E-3,-8.7484205E-4,-1.21654505E-2,-4.914751E-3,7.353124E-3,3.058968E-3,3.5944916E-3,-8.862655E-3,5.948738E-3,7.6073984E-4,3.9888386E-4,1.5054419E-2,-2.3154344E-2,-2.2521345E-3,2.1333467E-4,-3.8032515E-3,5.8638295E-3,2.5142583E-3,2.2114415E-3,-1.0323469E-4,2.108241E-3,-2.669781E-3,-4.2326828E-3,-8.572426E-3,2.6946355E-4,2.722123E-3,-1.6849156E-3,2.4405953E-4],"categories":[],"categories_nodes":[],"categories_segments":[],"categories_sizes":[],"default_left":[0,0,0,0,1,0,0,0,0,1,1,0,0,1,0,0,0,0,0,1,0,0,0,0,0,0,1,0,0,1,0,0,0,0,0,0,0,0,0,0,0,0,0,0,0,0,0,0,0,0,0,0,0,0,0,0,0,0,0,0,0,0,0],"id":3,"left_children":[1,3,5,7,9,11,13,15,17,19,21,23,25,27,29,31,33,35,37,39,41,43,45,47,49,51,53,55,57,59,61,-1,-1,-1,-1,-1,-1,-1,-1,-1,-1,-1,-1,-1,-1,-1,-1,-1,-1,-1,-1,-1,-1,-1,-1,-1,-1,-1,-1,-1,-1,-1,-1],"loss_changes":[9.251543E1,3.9961403E1,7.708739E1,1.687585E1,3.2408905E1,7.47552E1,3.4739983E1,4.254784E0,7.839628E0,2.3675583E1,2.7079025E1,2.9216635E2,1.1920609E2,1.8788597E1,7.158622E0,3.0971527E-1,2.236602E0,1.3061275E0,5.76713E0,1.4451622E1,9.314942E0,2.8735762E0,1.1476204E1,2.0688858E2,2.3656084E2,3.0197021E1,5.4609802E1,1.182193E1,1.08967285E1,1.6308475E0,1.051617E1,0E0,0E0,0E0,0E0,0E0,0E0,0E0,0E0,0E0,0E0,0E0,0E0,0E0,0E0,0E0,0E0,0E0,0E0,0E0,0E0,0E0,0E0,0E0,0E0,0E0,0E0,0E0,0E0,0E0,0E0,0E0,0E0],"parents":[2147483647,0,0,1,1,2,2,3,3,4,4,5,5,6,6,7,7,8,8,9,9,10,10,11,11,12,12,13,13,14,14,15,15,16,16,17,17,18,18,19,19,20,20,21,21,22,22,23,23,24,24,25,25,26,26,27,27,28,28,29,29,30,30],"right_children":[2,4,6,8,10,12,14,16,18,20,22,24,26,28,30,32,34,36,38,40,42,44,46,48,50,52,54,56,58,60,62,-1,-1,-1,-1,-1,-1,-1,-1,-1,-1,-1,-1,-1,-1,-1,-1,-1,-1,-1,-1,-1,-1,-1,-1,-1,-1,-1,-1,-1,-1,-1,-1],"split_conditions":[-1.25E-1,-2.3555279E-2,1.08003616E-4,-3.1523556E-2,-2.3109794E-2,5.2571297E-5,1.10566616E-4,-1.73428E-1,9.287691E-2,-2.3140222E-2,6.865859E-4,-2.8925627E-2,5.966425E-5,-4.842397E-1,-4.206086E-1,2.1155012E-1,2.1155012E-1,-4.0590155E-1,-3.388991E-1,-2.0287722E-2,1.399306E-1,-2.1834847E-1,1.0510194E-1,4.720688E-5,4.720688E-5,-2.8708303E-1,-3.591295E-1,-1.230976E-2,3.7684077E-1,-9.285629E-2,1.8792629E-1,-5.255122E-3,-1.0820955E-2,3.093355E-4,4.4755675E-3,7.175241E-3,-8.7484205E-4,-1.21654505E-2,-4.914751E-3,7.353124E-3,3.058968E-3,3.5944916E-3,-8.862655E-3,5.948738E-3,7.6073984E-4,3.9888386E-4,1.5054419E-2,-2.3154344E-2,-2.2521345E-3,2.1333467E-4,-3.8032515E-3,5.8638295E-3,2.5142583E-3,2.2114415E-3,-1.0323469E-4,2.108241E-3,-2.669781E-3,-4.2326828E-3,-8.572426E-3,2.6946355E-4,2.722123E-3,-1.6849156E-3,2.4405953E-4],"split_indices":[394,183,0,183,337,0,0,396,16,337,251,337,0,147,14,14,14,4,333,183,137,397,14,0,0,333,4,251,14,163,14,0,0,0,0,0,0,0,0,0,0,0,0,0,0,0,0,0,0,0,0,0,0,0,0,0,0,0,0,0,0,0,0],"split_type":[0,0,0,0,0,0,0,0,0,0,0,0,0,0,0,0,0,0,0,0,0,0,0,0,0,0,0,0,0,0,0,0,0,0,0,0,0,0,0,0,0,0,0,0,0,0,0,0,0,0,0,0,0,0,0,0,0,0,0,0,0,0,0],"sum_hessian":[2.038814E6,5.9636E4,1.979178E6,8.625E3,5.1011E4,1.811633E6,1.67545E5,4.087E3,4.538E3,4.3545E4,7.466E3,1.12274E6,6.88893E5,6.8601E4,9.8944E4,3.05E2,3.782E3,1.208E3,3.33E3,4.1403E4,2.142E3,3.078E3,4.388E3,1.3624E4,1.109116E6,1.18683E5,5.7021E5,4.2461E4,2.614E4,7.893E3,9.1051E4,1.73E2,1.32E2,1.629E3,2.153E3,1.67E2,1.041E3,1.291E3,2.039E3,6.733E3,3.467E4,5.98E2,1.544E3,1.478E3,1.6E3,4.26E2,3.962E3,6.815E3,6.809E3,9.91087E5,1.18029E5,2.4361E4,9.4322E4,8.6407E4,4.83803E5,4.124E3,3.8337E4,2.0943E4,5.197E3,3.528E3,4.365E3,6.0418E4,3.0633E4],"tree_param":{"num_deleted":"0","num_feature":"421","num_nodes":"63","size_leaf_vector":"1"}},{"base_weights":[-7.923499E-6,3.5593275E-2,-1.0814178E-3,7.759823E-2,2.1042315E-2,-5.6868433E-3,6.684494E-3,2.0719394E-2,1.0256383E-1,-3.5331175E-2,2.630267E-2,-1.4582104E-2,4.317745E-3,1.5567719E-2,-6.7911996E-3,5.2215327E-2,-7.4913437E-3,1.428533E-1,7.40109E-2,-9.315355E-2,3.6741667E-3,3.2767665E-2,-3.219275E-2,-2.4571389E-1,-1.2497141E-2,7.031608E-3,-1.1027816E-1,9.507847E-3,5.5087537E-2,-3.6406524E-2,-3.78026E-3,7.5750207E-3,2.3004215E-3,1.3991533E-3,-5.6973356E-3,1.9325175E-3,1.3687632E-2,4.4450415E-3,1.02697825E-2,-2.9934442E-4,-9.013484E-3,2.6524432E-3,-2.0589984E-3,2.0875782E-3,5.813487E-3,-7.4966634E-3,2.1613224E-3,-1.4895432E-2,-2.380343E-2,-6.903981E-4,-3.288838E-3,1.2581192E-3,-1.6286998E-3,-3.8118463E-3,-1.2676672E-2,1.2745168E-3,-8.7690144E-4,9.271697E-3,-1.1954841E-3,-1.8378446E-3,-4.9931873E-3,1.5429761E-3,-5.0708617E-4],"categories":[],"categories_nodes":[],"categories_segments":[],"categories_sizes":[],"default_left":[0,0,0,0,0,0,0,1,0,0,0,0,0,0,0,0,1,0,0,0,0,0,0,0,0,0,0,0,0,0,1,0,0,0,0,0,0,0,0,0,0,0,0,0,0,0,0,0,0,0,0,0,0,0,0,0,0,0,0,0,0,0,0],"id":4,"left_children":[1,3,5,7,9,11,13,15,17,19,21,23,25,27,29,31,33,35,37,39,41,43,45,47,49,51,53,55,57,59,61,-1,-1,-1,-1,-1,-1,-1,-1,-1,-1,-1,-1,-1,-1,-1,-1,-1,-1,-1,-1,-1,-1,-1,-1,-1,-1,-1,-1,-1,-1,-1,-1],"loss_changes":[7.7919876E1,3.6471474E1,7.0786316E1,2.1796051E1,1.3145794E1,1.1056633E2,8.819882E1,4.1647058E0,1.2253967E1,8.535629E0,1.5334236E1,3.169196E2,1.8185165E2,1.0634328E2,2.6101036E1,2.0552025E0,3.5426888E0,9.835648E0,6.3399734E0,1.7898207E0,1.7450708E0,1.0645782E1,1.3085138E1,1.4322693E1,7.462799E1,1.1693527E2,3.4623383E1,4.218227E1,2.2152217E2,8.94043E0,1.2837734E1,0E0,0E0,0E0,0E0,0E0,0E0,0E0,0E0,0E0,0E0,0E0,0E0,0E0,0E0,0E0,0E0,0E0,0E0,0E0,0E0,0E0,0E0,0E0,0E0,0E0,0E0,0E0,0E0,0E0,0E0,0E0,0E0],"parents":[2147483647,0,0,1,1,2,2,3,3,4,4,5,5,6,6,7,7,8,8,9,9,10,10,11,11,12,12,13,13,14,14,15,15,16,16,17,17,18,18,19,19,20,20,21,21,22,22,23,23,24,24,25,25,26,26,27,27,28,28,29,29,30,30],"right_children":[2,4,6,8,10,12,14,16,18,20,22,24,26,28,30,32,34,36,38,40,42,44,46,48,50,52,54,56,58,60,62,-1,-1,-1,-1,-1,-1,-1,-1,-1,-1,-1,-1,-1,-1,-1,-1,-1,-1,-1,-1,-1,-1,-1,-1,-1,-1,-1,-1,-1,-1,-1,-1],"split_conditions":[-1.25E-1,-3.5031855E-2,-3.7890524E-2,-1.7798188E-1,-2.3828447E-2,5.2571297E-5,3.8171357E-1,-2.7055085E-2,-2.4994195E-2,-2.338993E-1,4.595518E-5,-2.8925627E-2,-3.8484186E-2,-2.866295E-2,-4.2152467E-1,-1.6470045E-2,-4.6830666E-1,1.3999486E-1,4.595518E-5,-1.7794353E-1,-1.4296055E-2,4.5359135E-5,-1.5547729E-1,-2.0476621E-1,4.720688E-5,1.08003616E-4,7.599592E-5,7.420778E-5,4.720688E-5,4.0593904E-1,-4.5310396E-1,7.5750207E-3,2.3004215E-3,1.3991533E-3,-5.6973356E-3,1.9325175E-3,1.3687632E-2,4.4450415E-3,1.02697825E-2,-2.9934442E-4,-9.013484E-3,2.6524432E-3,-2.0589984E-3,2.0875782E-3,5.813487E-3,-7.4966634E-3,2.1613224E-3,-1.4895432E-2,-2.380343E-2,-6.903981E-4,-3.288838E-3,1.2581192E-3,-1.6286998E-3,-3.8118463E-3,-1.2676672E-2,1.2745168E-3,-8.7690144E-4,9.271697E-3,-1.1954841E-3,-1.8378446E-3,-4.9931873E-3,1.5429761E-3,-5.0708617E-4],"split_indices":[332,297,181,332,289,0,181,337,289,123,0,337,181,181,155,12,302,4,0,394,297,0,155,328,0,0,0,0,0,143,4,0,0,0,0,0,0,0,0,0,0,0,0,0,0,0,0,0,0,0,0,0,0,0,0,0,0,0,0,0,0,0,0],"split_type":[0,0,0,0,0,0,0,0,0,0,0,0,0,0,0,0,0,0,0,0,0,0,0,0,0,0,0,0,0,0,0,0,0,0,0,0,0,0,0,0,0,0,0,0,0,0,0,0,0,0,0,0,0,0,0,0,0,0,0,0,0,0,0],"sum_hessian":[2.038863E6,5.9677E4,1.979186E6,1.5352E4,4.4325E4,1.242405E6,7.36781E5,4.684E3,1.0668E4,3.782E3,4.0543E4,6.57665E5,5.8474E5,4.44058E5,2.92723E5,2.213E3,2.471E3,4.422E3,6.246E3,1.523E3,2.259E3,3.6509E4,4.034E3,5.878E3,6.51787E5,5.71214E5,1.3526E4,3.85022E5,5.9036E4,2.7012E4,2.65711E5,8.91E2,1.322E3,1.763E3,7.08E2,5.92E2,3.83E3,4.284E3,1.962E3,1.95E2,1.328E3,1.137E3,1.122E3,2.9736E4,6.773E3,2.043E3,1.991E3,1.959E3,3.919E3,5.59107E5,9.268E4,4.40272E5,1.30942E5,5.073E3,8.453E3,3.01242E5,8.378E4,3.3093E4,2.5943E4,1.6315E4,1.0697E4,2.4168E4,2.41543E5],"tree_param":{"num_deleted":"0","num_feature":"421","num_nodes":"63","size_leaf_vector":"1"}},{"base_weights":[-4.979134E-6,-2.8772668E-3,2.3642657E-2,-7.60027E-3,9.215292E-3,6.293241E-2,-3.3988948E-3,-1.3381604E-2,2.5686694E-3,2.3960106E-2,-2.3322867E-3,3.1204637E-2,1.1438829E-1,5.3651307E-2,-7.424772E-3,-7.309904E-3,-4.1892394E-2,-1.6334455E-2,1.1568998E-2,1.3293076E-2,5.4220513E-2,7.197237E-3,-1.2824518E-2,6.895258E-2,7.577536E-3,2.6976168E-1,8.549305E-2,5.724615E-3,1.6540836E-1,-5.3656194E-2,-4.18074E-3,1.7992017E-4,-1.6123047E-3,-1.8779015E-2,-2.9217529E-3,-3.152447E-4,-5.164717E-3,-5.846165E-3,1.2255659E-3,5.333889E-4,6.357859E-3,3.8917235E-3,1.5020279E-2,-2.1298272E-3,1.3669536E-3,-5.3398567E-3,-7.1416254E-4,4.7988747E-3,1.5677739E-2,2.6712809E-3,-9.152519E-4,5.8037516E-2,1.8092321E-2,1.0393827E-2,4.244802E-3,-8.904118E-3,2.6443545E-3,1.6344033E-2,-2.6583E-3,4.5966735E-4,-5.802556E-3,6.6902307E-3,-7.7699195E-4],"categories":[],"categories_nodes":[],"categories_segments":[],"categories_sizes":[],"default_left":[1,0,0,1,0,0,0,1,0,0,1,0,0,1,0,0,0,0,0,0,0,0,0,0,0,0,0,1,0,0,0,0,0,0,0,0,0,0,0,0,0,0,0,0,0,0,0,0,0,0,0,0,0,0,0,0,0,0,0,0,0,0,0],"id":5,"left_children":[1,3,5,7,9,11,13,15,17,19,21,23,25,27,29,31,33,35,37,39,41,43,45,47,49,51,53,55,57,59,61,-1,-1,-1,-1,-1,-1,-1,-1,-1,-1,-1,-1,-1,-1,-1,-1,-1,-1,-1,-1,-1,-1,-1,-1,-1,-1,-1,-1,-1,-1,-1,-1],"loss_changes":[1.3848268E2,1.0383261E2,2.3461154E2,7.6861725E1,8.694339E1,1.4696027E2,3.0040567E1,1.4428714E2,8.0622604E1,7.2388306E1,2.8632284E1,4.9664417E1,1.5410995E2,4.61718E1,1.8321957E1,7.583293E1,1.9550491E2,8.593999E1,7.4470215E1,7.162203E1,5.983757E1,4.3252068E1,3.0091702E1,3.0712776E1,1.5050908E1,1.2572534E2,3.8018143E1,1.7011501E1,1.3911934E1,6.987612E0,4.7233894E1,0E0,0E0,0E0,0E0,0E0,0E0,0E0,0E0,0E0,0E0,0E0,0E0,0E0,0E0,0E0,0E0,0E0,0E0,0E0,0E0,0E0,0E0,0E0,0E0,0E0,0E0,0E0,0E0,0E0,0E0,0E0,0E0],"parents":[2147483647,0,0,1,1,2,2,3,3,4,4,5,5,6,6,7,7,8,8,9,9,10,10,11,11,12,12,13,13,14,14,15,15,16,16,17,17,18,18,19,19,20,20,21,21,22,22,23,23,24,24,25,25,26,26,27,27,28,28,29,29,30,30],"right_children":[2,4,6,8,10,12,14,16,18,20,22,24,26,28,30,32,34,36,38,40,42,44,46,48,50,52,54,56,58,60,62,-1,-1,-1,-1,-1,-1,-1,-1,-1,-1,-1,-1,-1,-1,-1,-1,-1,-1,-1,-1,-1,-1,-1,-1,-1,-1,-1,-1,-1,-1,-1,-1],"split_conditions":[-1.3398379E-2,8.413017E-3,-1.0182619E-2,1.0452867E-3,1.5791535E-2,5.3162217E-2,-2.015306E-1,-2.3023784E-3,-2.1751404E-2,1.32033825E-2,-2.8347313E-2,7.456541E-5,-3.121066E-1,-2.8121352E-2,-3.0119479E-2,6.7174435E-5,-2.8925627E-2,4.373312E-3,-2.7492583E-2,-1.7684996E-2,7.122755E-5,-3.6551982E-2,-6.223589E-2,-1.1750013E-2,-6.161931E-2,-1.2271285E-2,5.727637E-2,-2.0541847E-3,-2.4822682E-2,-3.431374E-2,-2.1743298E-2,1.7992017E-4,-1.6123047E-3,-1.8779015E-2,-2.9217529E-3,-3.152447E-4,-5.164717E-3,-5.846165E-3,1.2255659E-3,5.333889E-4,6.357859E-3,3.8917235E-3,1.5020279E-2,-2.1298272E-3,1.3669536E-3,-5.3398567E-3,-7.1416254E-4,4.7988747E-3,1.5677739E-2,2.6712809E-3,-9.152519E-4,5.8037516E-2,1.8092321E-2,1.0393827E-2,4.244802E-3,-8.904118E-3,2.6443545E-3,1.6344033E-2,-2.6583E-3,4.5966735E-4,-5.802556E-3,6.6902307E-3,-7.7699195E-4],"split_indices":[180,183,180,304,183,167,328,304,183,183,180,0,35,252,181,0,337,304,180,180,0,180,181,180,12,180,167,304,252,181,181,0,0,0,0,0,0,0,0,0,0,0,0,0,0,0,0,0,0,0,0,0,0,0,0,0,0,0,0,0,0,0,0],"split_type":[0,0,0,0,0,0,0,0,0,0,0,0,0,0,0,0,0,0,0,0,0,0,0,0,0,0,0,0,0,0,0,0,0,0,0,0,0,0,0,0,0,0,0,0,0,0,0,0,0,0,0,0,0,0,0,0,0,0,0,0,0,0,0],"sum_hessian":[2.038829E6,1.818012E6,2.20817E5,1.307387E6,5.10625E5,9.0021E4,1.30796E5,8.33513E5,4.73874E5,2.24266E5,2.86359E5,5.5687E4,3.4334E4,8.62E3,1.22176E5,6.87174E5,1.46339E5,1.52848E5,3.21026E5,1.65817E5,5.8449E4,1.50063E5,1.36296E5,2.1436E4,3.4251E4,5.382E3,2.8952E4,6.034E3,2.586E3,8.009E3,1.14167E5,3.80485E5,3.06689E5,5.823E3,1.40516E5,1.19122E5,3.3726E4,1.1093E4,3.09933E5,1.48908E5,1.6909E4,5.4739E4,3.71E3,3.2466E4,1.17597E5,1.1003E4,1.25293E5,1.9371E4,2.065E3,1.4878E4,1.9373E4,6.43E2,4.739E3,1.4151E4,1.4801E4,1.127E3,4.907E3,2.271E3,3.15E2,1.601E3,6.408E3,6.457E3,1.0771E5],"tree_param":{"num_deleted":"0","num_feature":"421","num_nodes":"63","size_leaf_vector":"1"}},{"base_weights":[9.1714224E-7,2.3975105E-3,-3.5437077E-2,-9.862727E-3,4.7014137E-3,-8.2896635E-2,-2.16638E-2,-2.2684167E-1,-6.515407E-3,2.243771E-3,2.5096945E-2,-6.331619E-2,-1.2864755E-1,-3.524529E-2,2.0174442E-2,-4.0650707E-2,-2.6261395E-1,-6.2279783E-2,-3.2815633E-3,1.9866094E-2,1.2536319E-4,5.758992E-2,-6.2265893E-4,-1.2534485E-2,-8.12524E-2,-8.733203E-2,-1.7491695E-1,-2.1089565E-2,-1.2223829E-1,4.9922604E-2,1.7166247E-3,2.2552001E-4,-1.0405742E-2,-1.8040264E-2,-2.6562886E-2,-7.967281E-3,-9.875324E-4,-2.109215E-3,-8.328489E-6,-3.8905378E-4,2.6009178E-3,2.6766842E-3,-9.3479284E-5,1.2798321E-2,4.00361E-3,-3.0444406E-3,6.170845E-5,6.4236466E-3,-3.2762932E-3,-5.9738727E-3,-9.652824E-3,-1.31888045E-2,-6.2393583E-3,-1.3259294E-2,-1.9023184E-2,2.3176668E-3,-3.9053424E-3,-4.2413105E-3,-1.2106716E-2,8.792631E-3,3.3691982E-3,-7.296686E-4,4.320989E-3],"categories":[],"categories_nodes":[],"categories_segments":[],"categories_sizes":[],"default_left":[1,0,0,0,1,0,0,0,0,0,0,1,1,0,0,0,0,0,0,1,0,0,0,0,1,0,1,0,1,0,1,0,0,0,0,0,0,0,0,0,0,0,0,0,0,0,0,0,0,0,0,0,0,0,0,0,0,0,0,0,0,0,0],"id":6,"left_children":[1,3,5,7,9,11,13,15,17,19,21,23,25,27,29,31,33,35,37,39,41,43,45,47,49,51,53,55,57,59,61,-1,-1,-1,-1,-1,-1,-1,-1,-1,-1,-1,-1,-1,-1,-1,-1,-1,-1,-1,-1,-1,-1,-1,-1,-1,-1,-1,-1,-1,-1,-1,-1],"loss_changes":[1.7315717E2,5.3941357E1,8.4414536E1,2.193998E2,8.0579346E1,2.6006287E1,5.688037E1,3.0545258E1,5.364768E1,5.355894E1,1.4447784E2,1.8527504E1,1.6612213E1,9.305274E1,1.3468443E1,2.637716E0,9.613098E0,2.6139042E1,1.932409E1,4.0665905E1,4.9424065E1,7.399425E1,4.5970807E0,1.2241011E1,5.2789993E0,4.296459E0,3.7079086E0,7.854315E1,1.5653381E1,5.138485E0,7.6941996E0,0E0,0E0,0E0,0E0,0E0,0E0,0E0,0E0,0E0,0E0,0E0,0E0,0E0,0E0,0E0,0E0,0E0,0E0,0E0,0E0,0E0,0E0,0E0,0E0,0E0,0E0,0E0,0E0,0E0,0E0,0E0,0E0],"parents":[2147483647,0,0,1,1,2,2,3,3,4,4,5,5,6,6,7,7,8,8,9,9,10,10,11,11,12,12,13,13,14,14,15,15,16,16,17,17,18,18,19,19,20,20,21,21,22,22,23,23,24,24,25,25,26,26,27,27,28,28,29,29,30,30],"right_children":[2,4,6,8,10,12,14,16,18,20,22,24,26,28,30,32,34,36,38,40,42,44,46,48,50,52,54,56,58,60,62,-1,-1,-1,-1,-1,-1,-1,-1,-1,-1,-1,-1,-1,-1,-1,-1,-1,-1,-1,-1,-1,-1,-1,-1,-1,-1,-1,-1,-1,-1,-1,-1],"split_conditions":[-2.4297535E-3,-1.4660078E-1,-2.3474097E-3,-7.902372E-2,-5.1541984E-2,5.364418E-5,5.2571297E-5,-1.31917E-1,-6.262308E-2,-1.0505259E-2,-3.8251102E-2,-2.96414E-1,-1.08570844E-1,4.720688E-5,5.686283E-5,3.951788E-5,-3.0192852E-2,4.005432E-5,-4.2161375E-1,-1.0644674E-2,-4.6867675E-1,-7.0777237E-3,-2.0600274E-1,-2.6539981E-2,1.8690068E-1,4.8433048E-1,3.2752997E-1,-2.0824075E-3,-4.8430577E-1,1.7103583E-1,9.2847645E-2,2.2552001E-4,-1.0405742E-2,-1.8040264E-2,-2.6562886E-2,-7.967281E-3,-9.875324E-4,-2.109215E-3,-8.328489E-6,-3.8905378E-4,2.6009178E-3,2.6766842E-3,-9.3479284E-5,1.2798321E-2,4.00361E-3,-3.0444406E-3,6.170845E-5,6.4236466E-3,-3.2762932E-3,-5.9738727E-3,-9.652824E-3,-1.31888045E-2,-6.2393583E-3,-1.3259294E-2,-1.9023184E-2,2.3176668E-3,-3.9053424E-3,-4.2413105E-3,-1.2106716E-2,8.792631E-3,3.3691982E-3,-7.296686E-4,4.320989E-3],"split_indices":[9,185,9,182,182,1,1,182,182,296,182,157,420,1,1,1,11,1,158,251,5,9,395,296,418,139,151,9,153,370,35,0,0,0,0,0,0,0,0,0,0,0,0,0,0,0,0,0,0,0,0,0,0,0,0,0,0,0,0,0,0,0,0],"split_type":[0,0,0,0,0,0,0,0,0,0,0,0,0,0,0,0,0,0,0,0,0,0,0,0,0,0,0,0,0,0,0,0,0,0,0,0,0,0,0,0,0,0,0,0,0,0,0,0,0,0,0,0,0,0,0,0,0,0,0,0,0,0,0],"sum_hessian":[2.038818E6,1.909673E6,1.29145E5,3.02089E5,1.607584E6,2.9047E4,1.00098E5,4.588E3,2.97501E5,1.434706E6,1.72878E5,2.0344E4,8.703E3,7.5568E4,2.453E4,7.4E2,3.848E3,1.6305E4,2.81196E5,1.53958E5,1.280748E6,7.6381E4,9.6497E4,5.311E3,1.5033E4,4.6E3,4.103E3,6.4994E4,1.0574E4,9.391E3,1.5139E4,4.85E2,2.55E2,1.941E3,1.907E3,1.0031E4,6.274E3,3.6134E4,2.45062E5,4.7169E4,1.06789E5,4.8134E4,1.232614E6,7.646E3,6.8735E4,3.557E3,9.294E4,1.211E3,4.1E3,1.1289E4,3.744E3,7.7E2,3.83E3,2.986E3,1.117E3,2.2107E4,4.2887E4,2.34E3,8.234E3,1.495E3,7.896E3,1.2516E4,2.623E3],"tree_param":{"num_deleted":"0","num_feature":"421","num_nodes":"63","size_leaf_vector":"1"}},{"base_weights":[-2.61654E-5,2.1751851E-3,-3.26047E-2,-6.4252125E-4,1.2210477E-2,-7.642163E-2,-1.9910604E-2,-4.2727846E-3,7.6554194E-3,-1.7198935E-2,1.4266875E-2,-1.0037924E-1,-4.3766186E-2,1.3384193E-2,-3.644352E-2,-7.132784E-3,5.453429E-3,-1.313862E-3,1.5003206E-2,-1.279451E-1,-3.8228293E-3,6.6315114E-2,1.2215177E-2,-7.614955E-2,-1.22849405E-1,-3.9552916E-3,-7.223421E-2,-3.0080576E-3,4.9142025E-2,-5.3732667E-2,2.3901913E-2,2.4314769E-4,-1.1118554E-3,1.4167252E-3,-5.265372E-4,-9.658408E-3,1.506294E-5,3.6716287E-3,4.8241974E-4,-3.8390583E-3,-2.0018151E-2,-3.9994167E-3,5.695229E-4,9.2362445E-3,3.2473367E-3,2.9902104E-3,8.419199E-4,-7.4347863E-3,-4.0871473E-3,-7.7185747E-3,-1.4308436E-2,6.308033E-3,-2.512887E-3,-3.894576E-3,-7.2486033E-3,3.1602923E-3,-8.3159463E-4,2.8470843E-3,1.0906814E-2,-8.16291E-3,-1.6982683E-3,-2.9226688E-3,3.414002E-3],"categories":[],"categories_nodes":[],"categories_segments":[],"categories_sizes":[],"default_left":[1,0,0,1,0,1,1,1,0,0,0,1,1,1,0,0,0,0,0,1,0,0,0,0,0,0,1,0,0,0,0,0,0,0,0,0,0,0,0,0,0,0,0,0,0,0,0,0,0,0,0,0,0,0,0,0,0,0,0,0,0,0,0],"id":7,"left_children":[1,3,5,7,9,11,13,15,17,19,21,23,25,27,29,31,33,35,37,39,41,43,45,47,49,51,53,55,57,59,61,-1,-1,-1,-1,-1,-1,-1,-1,-1,-1,-1,-1,-1,-1,-1,-1,-1,-1,-1,-1,-1,-1,-1,-1,-1,-1,-1,-1,-1,-1,-1,-1],"loss_changes":[1.4621727E2,5.4001648E1,7.1772125E1,4.4917164E1,2.5320385E1,2.26678E1,5.5079933E1,2.8854397E1,2.9907858E1,4.052791E1,4.1783913E1,9.084473E0,1.3903065E1,1.9461786E1,6.9759346E1,4.791063E1,3.0927073E1,3.4311996E1,6.573146E1,2.6326935E1,1.1150479E1,1.7702919E1,1.9847328E1,2.5816689E0,1.2634537E1,1.0293656E1,2.4823837E0,6.231452E0,1.2903612E1,7.4477234E1,1.421319E1,0E0,0E0,0E0,0E0,0E0,0E0,0E0,0E0,0E0,0E0,0E0,0E0,0E0,0E0,0E0,0E0,0E0,0E0,0E0,0E0,0E0,0E0,0E0,0E0,0E0,0E0,0E0,0E0,0E0,0E0,0E0,0E0],"parents":[2147483647,0,0,1,1,2,2,3,3,4,4,5,5,6,6,7,7,8,8,9,9,10,10,11,11,12,12,13,13,14,14,15,15,16,16,17,17,18,18,19,19,20,20,21,21,22,22,23,23,24,24,25,25,26,26,27,27,28,28,29,29,30,30],"right_children":[2,4,6,8,10,12,14,16,18,20,22,24,26,28,30,32,34,36,38,40,42,44,46,48,50,52,54,56,58,60,62,-1,-1,-1,-1,-1,-1,-1,-1,-1,-1,-1,-1,-1,-1,-1,-1,-1,-1,-1,-1,-1,-1,-1,-1,-1,-1,-1,-1,-1,-1,-1,-1],"split_conditions":[-2.4297535E-3,2.8262722E-1,-2.3474097E-3,1.2411916E-1,-7.7407956E-3,-4.8435846E-1,-2.386567E-2,8.413017E-3,4.1246414E-5,3.4213066E-5,-7.0777237E-3,-3.0410796E-2,-2.0245686E-1,-4.3650794E-1,4.7802925E-5,-4.9274266E-3,1.5791535E-2,-2.4104983E-2,4.7028065E-5,2.1821737E-1,-1.869573E-1,-1.0125518E-2,-1.1535171E-1,4.2161542E-1,5.364418E-5,-1.0127693E-2,-2.808001E-1,-4.215555E-1,3.434258E-1,5.7068706E-2,-1.4711022E-2,2.4314769E-4,-1.1118554E-3,1.4167252E-3,-5.265372E-4,-9.658408E-3,1.506294E-5,3.6716287E-3,4.8241974E-4,-3.8390583E-3,-2.0018151E-2,-3.9994167E-3,5.695229E-4,9.2362445E-3,3.2473367E-3,2.9902104E-3,8.419199E-4,-7.4347863E-3,-4.0871473E-3,-7.7185747E-3,-1.4308436E-2,6.308033E-3,-2.512887E-3,-3.894576E-3,-7.2486033E-3,3.1602923E-3,-8.3159463E-4,2.8470843E-3,1.0906814E-2,-8.16291E-3,-1.6982683E-3,-2.9226688E-3,3.414002E-3],"split_indices":[9,19,9,128,9,92,183,183,0,0,9,420,156,183,0,9,183,408,0,5,387,183,396,158,0,251,420,11,10,167,251,0,0,0,0,0,0,0,0,0,0,0,0,0,0,0,0,0,0,0,0,0,0,0,0,0,0,0,0,0,0,0,0],"split_type":[0,0,0,0,0,0,0,0,0,0,0,0,0,0,0,0,0,0,0,0,0,0,0,0,0,0,0,0,0,0,0,0,0,0,0,0,0,0,0,0,0,0,0,0,0,0,0,0,0,0,0,0,0,0,0,0,0,0,0,0,0,0,0],"sum_hessian":[2.038802E6,1.909759E6,1.29043E5,1.49109E6,4.18669E5,2.8985E4,1.00058E5,1.03729E6,4.538E5,2.736E4,3.91309E5,1.6717E4,1.2268E4,3.3199E4,6.6859E4,8.01586E5,2.35704E5,2.04351E5,2.49449E5,2.947E3,2.4413E4,1.4838E4,3.76471E5,8.047E3,8.67E3,5.116E3,7.152E3,2.2764E4,1.0435E4,5.197E4,1.4889E4,2.9988E5,5.01706E5,1.19965E5,1.15739E5,2.671E3,2.0168E5,6.179E4,1.87659E5,1.671E3,1.276E3,4.775E3,1.9638E4,5.887E3,8.951E3,3.4004E4,3.42467E5,5.697E3,2.35E3,5.12E3,3.55E3,1.262E3,3.854E3,2.396E3,4.756E3,3.286E3,1.9478E4,8.727E3,1.708E3,2.2981E4,2.8989E4,3.258E3,1.1631E4],"tree_param":{"num_deleted":"0","num_feature":"421","num_nodes":"63","size_leaf_vector":"1"}},{"base_weights":[-9.255924E-6,2.485372E-3,-2.4092747E-2,1.8810272E-2,7.1884005E-4,-8.3198756E-2,-1.7217277E-2,-6.9461577E-3,3.9389998E-2,-2.2885634E-3,1.2585621E-2,-2.358547E-2,-1.0946047E-1,-1.4201062E-2,-7.7114694E-2,-4.159277E-2,4.5155194E-3,4.5069885E-2,-7.522018E-2,3.6669444E-2,-2.8570513E-3,3.3195391E-3,2.101164E-2,8.9061E-2,-2.8766615E-2,-1.4145368E-1,-7.7437356E-2,-2.4444742E-2,1.5798577E-3,-3.8143236E-2,-1.296729E-1,-9.60399E-3,9.6910854E-4,3.6116312E-3,-1.89958E-4,4.569159E-3,1.1629293E-3,4.3088885E-4,-1.2994276E-2,6.879597E-3,1.9330557E-3,-6.105789E-4,2.2460178E-4,9.41713E-4,-1.7723939E-3,4.5968383E-3,9.2926086E-4,4.4996496E-3,2.955956E-2,-5.722974E-3,-1.7152462E-3,-8.6319E-3,-1.5883053E-2,-4.226481E-3,-1.1637206E-2,-6.114556E-3,-1.2468202E-3,-6.306002E-4,3.148139E-3,-8.747461E-3,-2.4197896E-3,-1.3969817E-2,-7.6065194E-3],"categories":[],"categories_nodes":[],"categories_segments":[],"categories_sizes":[],"default_left":[1,0,0,0,1,1,0,0,1,0,0,0,0,0,1,0,0,0,0,0,0,0,0,1,0,1,0,0,0,0,0,0,0,0,0,0,0,0,0,0,0,0,0,0,0,0,0,0,0,0,0,0,0,0,0,0,0,0,0,0,0,0,0],"id":8,"left_children":[1,3,5,7,9,11,13,15,17,19,21,23,25,27,29,31,33,35,37,39,41,43,45,47,49,51,53,55,57,59,61,-1,-1,-1,-1,-1,-1,-1,-1,-1,-1,-1,-1,-1,-1,-1,-1,-1,-1,-1,-1,-1,-1,-1,-1,-1,-1,-1,-1,-1,-1,-1,-1],"loss_changes":[1.2249943E2,5.3280693E1,7.77678E1,9.562636E1,5.9498634E1,3.1212326E1,3.0968712E1,3.1819622E1,6.528369E1,2.9456932E1,2.6317715E1,3.5624313E0,1.4161392E1,2.6385952E1,1.6822506E1,7.566879E1,1.5484865E1,2.6378235E1,2.9662712E1,1.1793766E1,3.1339462E1,3.0265068E1,5.8912712E1,2.4719913E0,1.9250102E0,1.2551834E1,1.1406376E1,4.5950306E1,2.0585684E1,2.9422903E0,4.8755684E0,0E0,0E0,0E0,0E0,0E0,0E0,0E0,0E0,0E0,0E0,0E0,0E0,0E0,0E0,0E0,0E0,0E0,0E0,0E0,0E0,0E0,0E0,0E0,0E0,0E0,0E0,0E0,0E0,0E0,0E0,0E0,0E0],"parents":[2147483647,0,0,1,1,2,2,3,3,4,4,5,5,6,6,7,7,8,8,9,9,10,10,11,11,12,12,13,13,14,14,15,15,16,16,17,17,18,18,19,19,20,20,21,21,22,22,23,23,24,24,25,25,26,26,27,27,28,28,29,29,30,30],"right_children":[2,4,6,8,10,12,14,16,18,20,22,24,26,28,30,32,34,36,38,40,42,44,46,48,50,52,54,56,58,60,62,-1,-1,-1,-1,-1,-1,-1,-1,-1,-1,-1,-1,-1,-1,-1,-1,-1,-1,-1,-1,-1,-1,-1,-1,-1,-1,-1,-1,-1,-1,-1,-1],"split_conditions":[-2.4812818E-3,-1.5733749E-2,-2.7672619E-2,-6.977105E-2,1.8678677E-1,-4.059853E-1,7.981062E-5,-1.0644674E-2,-2.5087297E-3,-4.8434913E-1,4.1246414E-5,-4.8442388E-1,-2.767533E-3,4.476309E-5,-2.808001E-1,-1.1847481E-1,-7.803619E-3,-9.409189E-3,1.0510194E-1,-4.686257E-1,5.685991E-2,-3.1567216E-3,-4.9274266E-3,2.8071856E-1,4.5969725E-2,-4.3719715E-1,3.7684077E-1,-2.4104983E-2,-1.8354356E-3,-1.4662445E-2,-1.3111064E-1,-9.60399E-3,9.6910854E-4,3.6116312E-3,-1.89958E-4,4.569159E-3,1.1629293E-3,4.3088885E-4,-1.2994276E-2,6.879597E-3,1.9330557E-3,-6.105789E-4,2.2460178E-4,9.41713E-4,-1.7723939E-3,4.5968383E-3,9.2926086E-4,4.4996496E-3,2.955956E-2,-5.722974E-3,-1.7152462E-3,-8.6319E-3,-1.5883053E-2,-4.226481E-3,-1.1637206E-2,-6.114556E-3,-1.2468202E-3,-6.306002E-4,3.148139E-3,-8.747461E-3,-2.4197896E-3,-1.3969817E-2,-7.6065194E-3],"split_indices":[9,297,408,297,387,420,0,251,9,4,0,8,14,0,420,332,251,296,14,12,19,9,9,94,28,149,14,408,9,30,14,0,0,0,0,0,0,0,0,0,0,0,0,0,0,0,0,0,0,0,0,0,0,0,0,0,0,0,0,0,0,0,0],"split_type":[0,0,0,0,0,0,0,0,0,0,0,0,0,0,0,0,0,0,0,0,0,0,0,0,0,0,0,0,0,0,0,0,0,0,0,0,0,0,0,0,0,0,0,0,0,0,0,0,0,0,0,0,0,0,0,0,0,0,0,0,0,0,0],"sum_hessian":[2.038949E6,1.847573E6,1.91376E5,1.80403E5,1.66717E6,1.994E4,1.71436E5,8.0124E4,1.00279E5,1.330085E6,3.37085E5,6.099E3,1.3841E4,1.63219E5,8.217E3,1.9917E4,6.0207E4,9.5545E4,4.734E3,1.9128E4,1.310957E6,1.60542E5,1.76543E5,2.67E2,5.832E3,6.921E3,6.92E3,9.8974E4,6.4245E4,4.72E3,3.497E3,8.47E3,1.1447E4,9.073E3,5.1134E4,7.4597E4,2.0948E4,2.333E3,2.401E3,4.549E3,1.4579E4,7.32896E5,5.78061E5,1.21493E5,3.9049E4,4.1046E4,1.35497E5,2.36E2,3.1E1,1.052E3,4.78E3,3.712E3,3.209E3,4.736E3,2.184E3,1.68E4,8.2174E4,5.1246E4,1.2999E4,6.06E2,4.114E3,1.861E3,1.636E3],"tree_param":{"num_deleted":"0","num_feature":"421","num_nodes":"63","size_leaf_vector":"1"}},{"base_weights":[-5.1145813E-5,-2.726451E-3,9.476189E-3,3.525383E-2,-3.4232396E-3,1.1305422E-2,-1.1077498E-2,9.124919E-2,2.345757E-2,-1.1738026E-2,-3.4474581E-4,4.5512374E-2,1.0206879E-2,-2.7120825E-2,2.3233035E-5,2.4118674E-1,5.0991215E-2,3.428569E-2,8.207339E-5,-2.5511138E-2,-6.3122055E-3,6.02985E-2,-1.4237636E-3,9.7448295E-3,1.0620012E-1,1.618812E-2,8.631464E-4,-3.900245E-2,8.774477E-3,-1.1708254E-2,8.273232E-3,3.8716544E-3,2.2879595E-2,8.606379E-4,6.5750186E-3,1.7247638E-3,5.439692E-3,1.2257342E-4,-1.9825885E-2,-1.5005117E-3,-1.6563721E-2,-3.6477726E-5,-1.5084447E-3,1.9932073E-3,1.0969898E-2,4.360272E-4,-5.2877783E-4,2.1633178E-3,-7.000143E-3,5.6870207E-3,1.3875E-2,7.2185864E-4,3.2181835E-3,3.429495E-4,-4.0351986E-3,-1.574012E-3,-5.1731914E-3,1.3053997E-2,8.9763336E-5,-1.15607196E-4,-2.3342906E-3,1.617796E-3,-5.6338875E-4],"categories":[],"categories_nodes":[],"categories_segments":[],"categories_sizes":[],"default_left":[0,0,0,0,1,0,0,0,0,0,0,0,0,1,0,0,0,0,1,1,0,0,0,1,1,0,0,1,0,0,0,0,0,0,0,0,0,0,0,0,0,0,0,0,0,0,0,0,0,0,0,0,0,0,0,0,0,0,0,0,0,0,0],"id":9,"left_children":[1,3,5,7,9,11,13,15,17,19,21,23,25,27,29,31,33,35,37,39,41,43,45,47,49,51,53,55,57,59,61,-1,-1,-1,-1,-1,-1,-1,-1,-1,-1,-1,-1,-1,-1,-1,-1,-1,-1,-1,-1,-1,-1,-1,-1,-1,-1,-1,-1,-1,-1,-1,-1],"loss_changes":[5.1957603E1,4.211888E1,1.6803001E1,1.8933357E1,4.0005074E1,1.541959E1,6.505214E0,3.0086628E1,5.994216E0,3.1557304E1,7.4633865E1,2.7711401E1,2.2221642E1,6.3719263E0,2.0893767E0,5.874462E0,4.260709E0,6.736599E0,2.3856907E0,1.584226E2,2.0445948E1,5.0652252E1,3.539537E1,1.1690111E1,1.0616856E1,4.049073E1,2.3910362E1,5.0429745E0,4.1569796E0,1.4574034E0,2.0429847E0,0E0,0E0,0E0,0E0,0E0,0E0,0E0,0E0,0E0,0E0,0E0,0E0,0E0,0E0,0E0,0E0,0E0,0E0,0E0,0E0,0E0,0E0,0E0,0E0,0E0,0E0,0E0,0E0,0E0,0E0,0E0,0E0],"parents":[2147483647,0,0,1,1,2,2,3,3,4,4,5,5,6,6,7,7,8,8,9,9,10,10,11,11,12,12,13,13,14,14,15,15,16,16,17,17,18,18,19,19,20,20,21,21,22,22,23,23,24,24,25,25,26,26,27,27,28,28,29,29,30,30],"right_children":[2,4,6,8,10,12,14,16,18,20,22,24,26,28,30,32,34,36,38,40,42,44,46,48,50,52,54,56,58,60,62,-1,-1,-1,-1,-1,-1,-1,-1,-1,-1,-1,-1,-1,-1,-1,-1,-1,-1,-1,-1,-1,-1,-1,-1,-1,-1,-1,-1,-1,-1,-1,-1],"split_conditions":[2.8262722E-1,-4.8434913E-1,1.08003616E-4,-4.684987E-1,-1.2696394E-1,-2.276867E-1,1.10566616E-4,-4.8442388E-1,-3.5916054E-1,-1.228112E-2,-1.24874055E-1,-2.4300253E-1,5.8427155E-2,1.2035966E-2,1.242038E-1,1.00001E0,3.9034027E-1,4.9352646E-5,1.5556723E-1,-1.3206628E-1,5.4781437E-2,5.5541992E-2,-8.93583E-2,-3.8407654E-2,-1.3560098E-1,5.6414783E-2,6.771088E-5,-7.770568E-3,-3.5912734E-1,1.0510194E-1,1.00001E0,3.8716544E-3,2.2879595E-2,8.606379E-4,6.5750186E-3,1.7247638E-3,5.439692E-3,1.2257342E-4,-1.9825885E-2,-1.5005117E-3,-1.6563721E-2,-3.6477726E-5,-1.5084447E-3,1.9932073E-3,1.0969898E-2,4.360272E-4,-5.2877783E-4,2.1633178E-3,-7.000143E-3,5.6870207E-3,1.3875E-2,7.2185864E-4,3.2181835E-3,3.429495E-4,-4.0351986E-3,-1.574012E-3,-5.1731914E-3,1.3053997E-2,8.9763336E-5,-1.15607196E-4,-2.3342906E-3,1.617796E-3,-5.6338875E-4],"split_indices":[19,4,0,10,25,328,0,8,22,183,25,328,167,183,35,149,158,0,18,25,167,167,25,245,394,167,0,183,12,14,18,0,0,0,0,0,0,0,0,0,0,0,0,0,0,0,0,0,0,0,0,0,0,0,0,0,0,0,0,0,0,0,0],"split_type":[0,0,0,0,0,0,0,0,0,0,0,0,0,0,0,0,0,0,0,0,0,0,0,0,0,0,0,0,0,0,0,0,0,0,0,0,0,0,0,0,0,0,0,0,0,0,0,0,0,0,0,0,0,0,0,0,0,0,0,0,0,0,0],"sum_hessian":[2.038474E6,1.591562E6,4.46912E5,2.8671E4,1.562891E6,4.1039E5,3.6522E4,4.987E3,2.3684E4,4.22294E5,1.140597E6,1.2767E4,3.97623E5,1.4936E4,2.1586E4,1.054E3,3.933E3,1.6185E4,7.499E3,1.19342E5,3.02952E5,1.9938E4,1.120659E6,8.034E3,4.733E3,2.42431E5,1.55192E5,1.1222E4,3.714E3,8.911E3,1.2675E4,1.35E2,9.19E2,1.55E3,2.383E3,1.1033E4,5.152E3,7.457E3,4.2E1,1.1409E5,5.252E3,2.00281E5,1.02671E5,1.3008E4,6.93E3,4.73938E5,6.46721E5,6.863E3,1.171E3,2.816E3,1.917E3,1.79205E5,6.3226E4,1.45632E5,9.56E3,5.818E3,5.404E3,1.86E2,3.528E3,5.389E3,3.522E3,7.352E3,5.323E3],"tree_param":{"num_deleted":"0","num_feature":"421","num_nodes":"63","size_leaf_vector":"1"}},{"base_weights":[-6.2382505E-6,-2.5067632E-3,2.0590754E-2,-6.494839E-3,7.71446E-3,5.413539E-2,-2.436729E-3,-1.118277E-2,1.7557396E-3,2.0101147E-2,-1.9807657E-3,2.616819E-2,9.9351205E-2,4.590261E-2,-5.8402005E-3,-6.2208595E-3,-3.4467548E-2,-1.5521941E-2,9.9770585E-3,1.0238412E-2,4.8051808E-2,6.5702996E-3,-1.1413833E-2,5.9490208E-2,5.4404363E-3,2.1585146E-1,6.7897245E-2,4.173903E-3,1.4218032E-1,-4.8927486E-2,-2.8063653E-3,1.8711545E-4,-1.4139427E-3,-1.5574721E-2,-2.40088E-3,-8.408751E-3,-8.544538E-4,3.236045E-3,4.0888094E-4,3.1167374E-4,5.7681636E-3,1.8325644E-2,3.6573415E-3,-1.9128927E-3,1.2421904E-3,-5.0955983E-3,-6.3930464E-4,9.202049E-3,2.0705238E-3,1.7699988E-3,-2.4875193E-3,4.6721343E-2,1.4871189E-2,7.959458E-3,3.6412622E-3,-7.4670087E-3,2.1649292E-3,-3.0104758E-3,1.40319755E-2,5.617795E-4,-5.3312615E-3,5.945117E-3,-6.1139965E-4],"categories":[],"categories_nodes":[],"categories_segments":[],"categories_sizes":[],"default_left":[1,0,0,1,0,0,0,1,0,0,1,0,0,1,0,0,0,0,0,0,0,0,0,0,0,0,0,1,0,0,0,0,0,0,0,0,0,0,0,0,0,0,0,0,0,0,0,0,0,0,0,0,0,0,0,0,0,0,0,0,0,0,0],"id":10,"left_children":[1,3,5,7,9,11,13,15,17,19,21,23,25,27,29,31,33,35,37,39,41,43,45,47,49,51,53,55,57,59,61,-1,-1,-1,-1,-1,-1,-1,-1,-1,-1,-1,-1,-1,-1,-1,-1,-1,-1,-1,-1,-1,-1,-1,-1,-1,-1,-1,-1,-1,-1,-1,-1],"loss_changes":[1.0499307E2,7.410249E1,1.7047647E2,5.057841E1,6.1273502E1,1.1359302E2,2.152906E1,9.6341576E1,6.730092E1,6.175248E1,2.308618E1,3.833499E1,1.25769196E2,3.457607E1,1.5979851E1,6.053996E1,1.3456291E2,6.958066E1,4.6642498E1,6.2788963E1,4.836267E1,3.531213E1,2.5667303E1,3.6585724E1,1.836035E1,9.888153E1,1.7504921E1,1.1828645E1,1.0771122E1,6.226124E0,3.6659763E1,0E0,0E0,0E0,0E0,0E0,0E0,0E0,0E0,0E0,0E0,0E0,0E0,0E0,0E0,0E0,0E0,0E0,0E0,0E0,0E0,0E0,0E0,0E0,0E0,0E0,0E0,0E0,0E0,0E0,0E0,0E0,0E0],"parents":[2147483647,0,0,1,1,2,2,3,3,4,4,5,5,6,6,7,7,8,8,9,9,10,10,11,11,12,12,13,13,14,14,15,15,16,16,17,17,18,18,19,19,20,20,21,21,22,22,23,23,24,24,25,25,26,26,27,27,28,28,29,29,30,30],"right_children":[2,4,6,8,10,12,14,16,18,20,22,24,26,28,30,32,34,36,38,40,42,44,46,48,50,52,54,56,58,60,62,-1,-1,-1,-1,-1,-1,-1,-1,-1,-1,-1,-1,-1,-1,-1,-1,-1,-1,-1,-1,-1,-1,-1,-1,-1,-1,-1,-1,-1,-1,-1,-1],"split_conditions":[-1.3398379E-2,8.413017E-3,-1.0182619E-2,1.0452867E-3,1.5791535E-2,5.3162217E-2,-2.015306E-1,-2.3023784E-3,-2.1751404E-2,1.32033825E-2,-2.8347313E-2,7.456541E-5,-2.4958026E-1,-2.8121352E-2,-3.0119479E-2,6.7174435E-5,-2.8925627E-2,3.4213066E-5,1.6982555E-3,-1.7684996E-2,-3.4186155E-2,-3.6551982E-2,-6.3726604E-2,-1.13735676E-1,1.8142581E-1,-2.386567E-2,5.727637E-2,-2.0541847E-3,-2.0476621E-1,-3.140098E-2,-2.1743298E-2,1.8711545E-4,-1.4139427E-3,-1.5574721E-2,-2.40088E-3,-8.408751E-3,-8.544538E-4,3.236045E-3,4.0888094E-4,3.1167374E-4,5.7681636E-3,1.8325644E-2,3.6573415E-3,-1.9128927E-3,1.2421904E-3,-5.0955983E-3,-6.3930464E-4,9.202049E-3,2.0705238E-3,1.7699988E-3,-2.4875193E-3,4.6721343E-2,1.4871189E-2,7.959458E-3,3.6412622E-3,-7.4670087E-3,2.1649292E-3,-3.0104758E-3,1.40319755E-2,5.617795E-4,-5.3312615E-3,5.945117E-3,-6.1139965E-4],"split_indices":[180,183,180,304,183,167,328,304,183,183,180,0,35,252,181,0,337,0,304,180,337,180,181,14,14,183,167,304,328,181,181,0,0,0,0,0,0,0,0,0,0,0,0,0,0,0,0,0,0,0,0,0,0,0,0,0,0,0,0,0,0,0,0],"split_type":[0,0,0,0,0,0,0,0,0,0,0,0,0,0,0,0,0,0,0,0,0,0,0,0,0,0,0,0,0,0,0,0,0,0,0,0,0,0,0,0,0,0,0,0,0,0,0,0,0,0,0,0,0,0,0,0,0,0,0,0,0,0,0],"sum_hessian":[2.038576E6,1.817883E6,2.20693E5,1.307666E6,5.10217E5,8.9832E4,1.30861E5,8.33869E5,4.73797E5,2.24015E5,2.86202E5,5.5504E4,3.4328E4,8.606E3,1.22255E5,6.87391E5,1.46478E5,1.52759E5,3.21038E5,1.65588E5,5.8427E4,1.50118E5,1.36084E5,2.1284E4,3.422E4,7.296E3,2.7032E4,6.005E3,2.601E3,8.04E3,1.14215E5,3.8054E5,3.06851E5,5.806E3,1.40672E5,9.34E3,1.43419E5,4.9653E4,2.71385E5,1.48697E5,1.6891E4,1.663E3,5.6764E4,3.2589E4,1.17529E5,1.0036E4,1.26048E5,8.877E3,1.2407E4,2.3703E4,1.0517E4,7.85E2,6.511E3,1.3251E4,1.3781E4,1.128E3,4.877E3,3.01E2,2.3E3,1.612E3,6.428E3,6.503E3,1.07712E5],"tree_param":{"num_deleted":"0","num_feature":"421","num_nodes":"63","size_leaf_vector":"1"}},{"base_weights":[3.6290316E-5,2.302499E-3,-2.1830618E-2,-2.5386612E-3,1.4087824E-2,-7.4738145E-2,-1.5671019E-2,-1.1183591E-2,4.383323E-3,3.0232105E-2,1.7286014E-3,-2.3280827E-2,-9.8011434E-2,-2.4826145E-2,3.3984822E-3,-2.2390991E-2,1.8200229E-3,8.5872775E-3,-1.2067511E-2,6.897099E-2,1.7774707E-2,1.4512728E-2,-1.37444455E-2,-1.1617004E-2,-9.78756E-2,-1.2545569E-1,-7.020635E-2,-3.2527056E-2,1.4438044E-2,4.314681E-2,-4.5959884E-3,4.2703425E-4,-2.6135028E-3,-4.2024534E-3,8.8071055E-4,2.0907451E-3,4.107451E-4,-1.15758E-4,-1.1877078E-2,5.086779E-3,1.9628191E-2,2.8430007E-3,2.482937E-4,-1.1375144E-4,3.8118332E-3,-2.4044495E-3,-3.02428E-4,3.87842E-3,-1.4763756E-3,-1.824267E-2,-6.188791E-3,-8.597194E-3,-1.4025654E-2,-3.818155E-3,-1.0368232E-2,-4.1702949E-4,-4.2347964E-3,3.8908145E-3,-1.8673446E-3,6.3430183E-3,1.0476886E-4,3.405944E-3,-1.036711E-3],"categories":[],"categories_nodes":[],"categories_segments":[],"categories_sizes":[],"default_left":[1,1,0,0,0,1,0,0,0,0,1,1,0,0,0,0,0,0,0,0,0,1,0,0,0,0,0,0,0,0,0,0,0,0,0,0,0,0,0,0,0,0,0,0,0,0,0,0,0,0,0,0,0,0,0,0,0,0,0,0,0,0,0],"id":11,"left_children":[1,3,5,7,9,11,13,15,17,19,21,23,25,27,29,31,33,35,37,39,41,43,45,47,49,51,53,55,57,59,61,-1,-1,-1,-1,-1,-1,-1,-1,-1,-1,-1,-1,-1,-1,-1,-1,-1,-1,-1,-1,-1,-1,-1,-1,-1,-1,-1,-1,-1,-1,-1,-1],"loss_changes":[1.0101366E2,1.05380806E2,6.237667E1,7.834359E1,1.07306465E2,2.389804E1,2.9934303E1,8.484212E1,5.0282295E1,1.1253053E2,6.0254887E1,5.4060917E0,1.0470505E1,3.5028656E1,1.7673948E1,7.224721E1,1.1856267E2,3.4830177E1,2.0267995E2,8.287256E1,4.1252968E1,8.047798E1,2.0487688E1,1.7868516E0,2.424634E0,6.6188354E0,8.941849E0,4.6540237E1,2.1772919E1,1.2349682E1,1.5807404E1,0E0,0E0,0E0,0E0,0E0,0E0,0E0,0E0,0E0,0E0,0E0,0E0,0E0,0E0,0E0,0E0,0E0,0E0,0E0,0E0,0E0,0E0,0E0,0E0,0E0,0E0,0E0,0E0,0E0,0E0,0E0,0E0],"parents":[2147483647,0,0,1,1,2,2,3,3,4,4,5,5,6,6,7,7,8,8,9,9,10,10,11,11,12,12,13,13,14,14,15,15,16,16,17,17,18,18,19,19,20,20,21,21,22,22,23,23,24,24,25,25,26,26,27,27,28,28,29,29,30,30],"right_children":[2,4,6,8,10,12,14,16,18,20,22,24,26,28,30,32,34,36,38,40,42,44,46,48,50,52,54,56,58,60,62,-1,-1,-1,-1,-1,-1,-1,-1,-1,-1,-1,-1,-1,-1,-1,-1,-1,-1,-1,-1,-1,-1,-1,-1,-1,-1,-1,-1,-1,-1,-1,-1],"split_conditions":[-2.4812818E-3,-1.7109185E-2,-2.7672619E-2,-2.3388177E-2,-4.9274266E-3,-4.687138E-1,7.6016188E-3,-3.6597252E-3,7.599592E-5,-2.0245323E-1,-3.431374E-2,-1.9112527E-2,2.8335035E-2,-1.51159465E-2,1.44376755E-2,-2.664563E-2,4.005432E-5,-2.8665543E-2,5.9830844E-2,-5.0415397E-3,9.025574E-3,-3.630218E-2,-2.866295E-2,-4.686684E-1,-4.052951E-1,1.5558887E-1,3.7684077E-1,6.9987774E-4,-1.4116466E-2,8.395743E-2,-1.0418072E-1,4.2703425E-4,-2.6135028E-3,-4.2024534E-3,8.8071055E-4,2.0907451E-3,4.107451E-4,-1.15758E-4,-1.1877078E-2,5.086779E-3,1.9628191E-2,2.8430007E-3,2.482937E-4,-1.1375144E-4,3.8118332E-3,-2.4044495E-3,-3.02428E-4,3.87842E-3,-1.4763756E-3,-1.824267E-2,-6.188791E-3,-8.597194E-3,-1.4025654E-2,-3.818155E-3,-1.0368232E-2,-4.1702949E-4,-4.2347964E-3,3.8908145E-3,-1.8673446E-3,6.3430183E-3,1.0476886E-4,3.405944E-3,-1.036711E-3],"split_indices":[9,180,408,184,9,153,183,9,3,161,181,183,14,180,183,180,3,180,167,9,14,181,181,6,14,151,14,304,180,14,130,0,0,0,0,0,0,0,0,0,0,0,0,0,0,0,0,0,0,0,0,0,0,0,0,0,0,0,0,0,0,0,0],"split_type":[0,0,0,0,0,0,0,0,0,0,0,0,0,0,0,0,0,0,0,0,0,0,0,0,0,0,0,0,0,0,0,0,0,0,0,0,0,0,0,0,0,0,0,0,0,0,0,0,0,0,0,0,0,0,0,0,0,0,0,0,0,0,0],"sum_hessian":[2.038423E6,1.847008E6,1.91415E5,1.309211E6,5.37797E5,1.9959E4,1.71456E5,5.82155E5,7.27056E5,2.33189E5,3.04608E5,6.217E3,1.3742E4,1.15842E5,5.5614E4,3.12673E5,2.69482E5,5.79077E5,1.47979E5,5.6739E4,1.7645E5,1.66798E5,1.3781E5,5.378E3,8.39E2,6.913E3,6.829E3,9.6848E4,1.8994E4,9.312E3,4.6302E4,7.3476E4,2.39197E5,3.8506E4,2.30976E5,1.09452E5,4.69625E5,1.3656E5,1.1419E4,5.3765E4,2.974E3,8.5628E4,9.0822E4,1.09667E5,5.7131E4,5.6593E4,8.1217E4,4.92E2,4.886E3,1.45E2,6.94E2,4.315E3,2.598E3,4.604E3,2.225E3,3.7448E4,5.94E4,1.0199E4,8.795E3,5.305E3,4.007E3,6.741E3,3.9561E4],"tree_param":{"num_deleted":"0","num_feature":"421","num_nodes":"63","size_leaf_vector":"1"}},{"base_weights":[1.648021E-5,1.7005599E-3,-2.4941549E-2,-2.6911793E-3,1.2792458E-2,-3.7368853E-2,6.2783593E-3,-5.6670148E-2,-1.8293873E-3,2.7597724E-2,1.615192E-3,-1.956176E-2,-6.601964E-2,1.8084874E-2,-4.5324598E-2,-6.871174E-2,2.7460793E-2,-8.044948E-3,5.363522E-3,6.720883E-2,1.7424226E-2,2.6644591E-2,-4.7832215E-3,-2.8921517E-2,3.761671E-2,-8.82195E-3,-7.733483E-2,7.8954324E-2,9.811335E-3,-8.96362E-2,-2.8147088E-2,-4.9023465E-3,-9.287707E-3,4.080316E-3,-2.4250236E-3,-5.378919E-4,-3.7197927E-3,-1.138841E-3,6.349438E-4,4.9587255E-3,1.8987658E-2,2.9018315E-6,2.3844028E-3,1.160024E-4,5.8746743E-3,8.448942E-4,-2.136877E-3,-5.207806E-3,-1.3887242E-4,2.4045212E-3,6.324866E-3,-5.8677895E-3,6.3708593E-4,-8.751277E-3,-4.5011863E-3,4.464899E-3,1.2570448E-2,1.2341936E-3,-1.4246418E-3,-6.4856377E-3,-1.2397094E-2,-3.8819718E-3,1.8888272E-3],"categories":[],"categories_nodes":[],"categories_segments":[],"categories_sizes":[],"default_left":[1,1,0,0,0,0,1,1,0,0,0,0,0,0,0,1,0,1,0,0,1,0,0,0,1,0,0,0,0,0,0,0,0,0,0,0,0,0,0,0,0,0,0,0,0,0,0,0,0,0,0,0,0,0,0,0,0,0,0,0,0,0,0],"id":12,"left_children":[1,3,5,7,9,11,13,15,17,19,21,23,25,27,29,31,33,35,37,39,41,43,45,47,49,51,53,55,57,59,61,-1,-1,-1,-1,-1,-1,-1,-1,-1,-1,-1,-1,-1,-1,-1,-1,-1,-1,-1,-1,-1,-1,-1,-1,-1,-1,-1,-1,-1,-1,-1,-1],"loss_changes":[8.568242E1,9.302666E1,4.999547E1,6.3637424E1,8.963479E1,4.7020264E1,2.2353489E1,2.1781967E1,6.0201023E1,9.389685E1,4.943059E1,3.0423054E1,2.2860886E1,1.5034093E1,5.1934156E0,8.356972E0,3.1188684E0,4.4047947E1,2.4902927E1,6.518065E1,3.4465668E1,6.770058E1,7.39883E1,4.3292847E1,2.7327747E0,5.756856E0,1.8485992E1,6.494051E0,3.3166945E0,1.3987589E0,4.3788185E0,0E0,0E0,0E0,0E0,0E0,0E0,0E0,0E0,0E0,0E0,0E0,0E0,0E0,0E0,0E0,0E0,0E0,0E0,0E0,0E0,0E0,0E0,0E0,0E0,0E0,0E0,0E0,0E0,0E0,0E0,0E0,0E0],"parents":[2147483647,0,0,1,1,2,2,3,3,4,4,5,5,6,6,7,7,8,8,9,9,10,10,11,11,12,12,13,13,14,14,15,15,16,16,17,17,18,18,19,19,20,20,21,21,22,22,23,23,24,24,25,25,26,26,27,27,28,28,29,29,30,30],"right_children":[2,4,6,8,10,12,14,16,18,20,22,24,26,28,30,32,34,36,38,40,42,44,46,48,50,52,54,56,58,60,62,-1,-1,-1,-1,-1,-1,-1,-1,-1,-1,-1,-1,-1,-1,-1,-1,-1,-1,-1,-1,-1,-1,-1,-1,-1,-1,-1,-1,-1,-1,-1,-1],"split_conditions":[-2.4297535E-3,-1.7109185E-2,-1.51159465E-2,-3.812337E-2,-4.9274266E-3,-2.5615573E-2,-1.0182619E-2,1.6476572E-2,1.2422669E-1,-2.4957466E-1,-1.6043961E-2,-1.8354356E-3,-3.3596277E-1,-1.8679875E-1,-2.3474097E-3,2.8079796E-1,-1.3922587E-1,-1.7428279E-2,-6.6304207E-3,-5.0415397E-3,-2.808001E-1,-4.5472383E-3,-1.9112527E-2,-2.8665543E-2,2.4953562E-1,6.1735272E-2,6.1728418E-2,3.1216568E-1,7.981062E-5,1.05679035E-4,4.7802925E-5,-4.9023465E-3,-9.287707E-3,4.080316E-3,-2.4250236E-3,-5.378919E-4,-3.7197927E-3,-1.138841E-3,6.349438E-4,4.9587255E-3,1.8987658E-2,2.9018315E-6,2.3844028E-3,1.160024E-4,5.8746743E-3,8.448942E-4,-2.136877E-3,-5.207806E-3,-1.3887242E-4,2.4045212E-3,6.324866E-3,-5.8677895E-3,6.3708593E-4,-8.751277E-3,-4.5011863E-3,4.464899E-3,1.2570448E-2,1.2341936E-3,-1.4246418E-3,-6.4856377E-3,-1.2397094E-2,-3.8819718E-3,1.8888272E-3],"split_indices":[9,180,180,183,9,180,180,251,161,161,180,9,372,186,9,420,331,180,9,9,420,183,183,180,338,4,161,10,0,0,0,0,0,0,0,0,0,0,0,0,0,0,0,0,0,0,0,0,0,0,0,0,0,0,0,0,0,0,0,0,0,0,0],"split_type":[0,0,0,0,0,0,0,0,0,0,0,0,0,0,0,0,0,0,0,0,0,0,0,0,0,0,0,0,0,0,0,0,0,0,0,0,0,0,0,0,0,0,0,0,0,0,0,0,0,0,0,0,0,0,0,0,0,0,0,0,0,0,0],"sum_hessian":[2.038549E6,1.909692E6,1.28857E5,1.368031E6,5.41661E5,9.2169E4,3.6688E4,2.1496E4,1.346535E6,2.33012E5,3.08649E5,5.6843E4,3.5326E4,2.9858E4,6.83E3,1.8805E4,2.691E3,7.22344E5,6.24191E5,4.7614E4,1.85398E5,6.2838E4,2.45811E5,4.8848E4,7.995E3,5.835E3,2.9491E4,3.571E3,2.6287E4,1.906E3,4.924E3,1.4841E4,3.964E3,1.967E3,7.24E2,6.89564E5,3.278E4,6.3361E4,5.6083E5,4.51E4,2.514E3,7.0583E4,1.14815E5,3.9447E4,2.3391E4,1.42717E5,1.03094E5,2.2298E4,2.655E4,6.395E3,1.6E3,1.242E3,4.593E3,1.4275E4,1.5216E4,2.59E3,9.81E2,2.2313E4,3.974E3,1.549E3,3.57E2,3.649E3,1.275E3],"tree_param":{"num_deleted":"0","num_feature":"421","num_nodes":"63","size_leaf_vector":"1"}},{"base_weights":[-4.396797E-5,1.5154372E-3,-2.3122258E-2,-1.053103E-3,1.0403349E-2,-5.4800324E-2,-1.3929575E-2,2.4564745E-2,-1.9150964E-3,1.7393542E-3,1.7465575E-2,-7.044893E-2,-2.3067346E-2,-2.3504773E-2,1.5606066E-2,1.5235157E-2,8.057056E-2,1.0998038E-2,-3.8132262E-3,-9.6097276E-2,2.988738E-3,4.5897417E-2,9.268884E-3,-5.894855E-2,-1.0944871E-1,1.3745757E-4,-7.224193E-2,-1.336552E-2,-8.61001E-2,4.7818087E-2,-1.8289881E-3,-3.1190834E-3,1.9960885E-3,3.9428673E-3,1.357164E-2,3.5112086E-4,2.5794418E-3,-2.254062E-3,-2.0118321E-4,-1.4472425E-2,-7.2570825E-3,1.2758758E-2,8.8746485E-5,2.7379056E-3,1.504943E-2,-3.2832911E-3,1.3991419E-3,-4.284777E-3,-7.3674005E-3,-7.429003E-3,-1.136855E-2,-3.307089E-3,3.4114583E-3,-3.892544E-3,-8.253708E-3,1.9208346E-3,-2.7076306E-3,-4.3436238E-3,-9.873061E-3,2.0247595E-3,1.0266963E-2,2.051974E-3,-1.7148401E-3],"categories":[],"categories_nodes":[],"categories_segments":[],"categories_sizes":[],"default_left":[1,1,0,0,0,1,0,1,0,0,0,1,0,0,0,0,0,0,0,0,0,0,0,1,0,0,1,0,0,0,0,0,0,0,0,0,0,0,0,0,0,0,0,0,0,0,0,0,0,0,0,0,0,0,0,0,0,0,0,0,0,0,0],"id":13,"left_children":[1,3,5,7,9,11,13,15,17,19,21,23,25,27,29,31,33,35,37,39,41,43,45,47,49,51,53,55,57,59,61,-1,-1,-1,-1,-1,-1,-1,-1,-1,-1,-1,-1,-1,-1,-1,-1,-1,-1,-1,-1,-1,-1,-1,-1,-1,-1,-1,-1,-1,-1,-1,-1],"loss_changes":[7.3375755E1,4.3599228E1,3.757669E1,3.2717464E1,2.6198719E1,1.4408279E1,2.8288553E1,2.5196856E1,3.513368E1,2.3502558E1,5.497277E1,8.704887E0,1.0942961E1,4.793727E1,1.3754376E1,1.785122E1,1.863134E1,2.4458998E1,4.099613E1,1.8765507E0,5.437267E1,9.453075E1,6.3508705E1,3.5231552E0,2.3567123E0,1.0222565E1,2.0214596E0,4.3455124E1,1.1122002E1,1.5074585E1,7.6051445E0,0E0,0E0,0E0,0E0,0E0,0E0,0E0,0E0,0E0,0E0,0E0,0E0,0E0,0E0,0E0,0E0,0E0,0E0,0E0,0E0,0E0,0E0,0E0,0E0,0E0,0E0,0E0,0E0,0E0,0E0,0E0,0E0],"parents":[2147483647,0,0,1,1,2,2,3,3,4,4,5,5,6,6,7,7,8,8,9,9,10,10,11,11,12,12,13,13,14,14,15,15,16,16,17,17,18,18,19,19,20,20,21,21,22,22,23,23,24,24,25,25,26,26,27,27,28,28,29,29,30,30],"right_children":[2,4,6,8,10,12,14,16,18,20,22,24,26,28,30,32,34,36,38,40,42,44,46,48,50,52,54,56,58,60,62,-1,-1,-1,-1,-1,-1,-1,-1,-1,-1,-1,-1,-1,-1,-1,-1,-1,-1,-1,-1,-1,-1,-1,-1,-1,-1,-1,-1,-1,-1,-1,-1],"split_conditions":[-2.4297535E-3,2.1809179E-1,-2.3474097E-3,-1.25E-1,4.1902065E-5,-3.434647E-1,5.2571297E-5,-2.3109794E-2,-3.8739058E-1,-2.4104983E-2,4.7028065E-5,2.1804821E-1,3.1746644E-1,4.720688E-5,-1.96699E-1,-5.2980185E-3,-4.563242E-3,-3.9445922E-1,-3.386674E-1,-3.9445922E-1,-2.405423E-2,4.6610832E-5,4.839897E-5,2.179941E-1,5.364418E-5,1.0510194E-1,-1.555017E-1,-2.0824075E-3,4.3719345E-1,-2.1980625E-1,6.3598156E-5,-3.1190834E-3,1.9960885E-3,3.9428673E-3,1.357164E-2,3.5112086E-4,2.5794418E-3,-2.254062E-3,-2.0118321E-4,-1.4472425E-2,-7.2570825E-3,1.2758758E-2,8.8746485E-5,2.7379056E-3,1.504943E-2,-3.2832911E-3,1.3991419E-3,-4.284777E-3,-7.3674005E-3,-7.429003E-3,-1.136855E-2,-3.307089E-3,3.4114583E-3,-3.892544E-3,-8.253708E-3,1.9208346E-3,-2.7076306E-3,-4.3436238E-3,-9.873061E-3,2.0247595E-3,1.0266963E-2,2.051974E-3,-1.7148401E-3],"split_indices":[9,128,9,394,0,94,0,337,14,408,0,418,14,0,14,9,9,14,14,14,408,0,0,153,0,14,420,9,94,14,0,0,0,0,0,0,0,0,0,0,0,0,0,0,0,0,0,0,0,0,0,0,0,0,0,0,0,0,0,0,0,0,0],"split_type":[0,0,0,0,0,0,0,0,0,0,0,0,0,0,0,0,0,0,0,0,0,0,0,0,0,0,0,0,0,0,0,0,0,0,0,0,0,0,0,0,0,0,0,0,0,0,0,0,0,0,0,0,0,0,0,0,0,0,0,0,0,0,0],"sum_hessian":[2.038855E6,1.909809E6,1.29046E5,1.481628E6,4.28181E5,2.9023E4,1.00023E5,4.8229E4,1.433399E6,1.92287E5,2.35894E5,1.9436E4,9.587E3,7.5536E4,2.4487E4,4.1344E4,6.885E3,1.83694E5,1.249705E6,2.423E3,1.89864E5,5.2786E4,1.83108E5,1.5013E4,4.423E3,6.514E3,3.073E3,6.5008E4,1.0528E4,8.599E3,1.5888E4,5.689E3,3.5655E4,4.82E3,2.065E3,1.35749E5,4.7945E4,7.4399E4,1.175306E6,2.97E2,2.126E3,2.467E3,1.87397E5,4.7837E4,4.949E3,2.3972E4,1.59136E5,1.1536E4,3.477E3,2.346E3,2.077E3,3.296E3,3.218E3,1.501E3,1.572E3,2.2108E4,4.29E4,4.897E3,5.631E3,6.482E3,2.117E3,6.578E3,9.31E3],"tree_param":{"num_deleted":"0","num_feature":"421","num_nodes":"63","size_leaf_vector":"1"}},{"base_weights":[-1.3483032E-5,-2.0068442E-3,1.6389608E-2,-5.2823494E-3,6.3877497E-3,4.4110313E-2,-2.6848924E-3,-3.1779476E-3,-2.5915014E-2,1.7260347E-2,-2.1134913E-3,1.0456524E-1,2.8570306E-2,4.2133328E-2,-5.832464E-3,-8.027645E-3,4.2000907E-3,-3.178627E-2,3.788666E-2,8.510767E-3,4.21248E-2,-1.440388E-2,3.931912E-3,3.7483305E-1,8.666573E-2,5.1804326E-2,8.550422E-3,-2.697823E-2,9.525653E-2,-4.154885E-2,-3.326819E-3,-3.026784E-4,-3.3750685E-3,7.91306E-3,2.2627285E-4,-2.1937448E-3,-6.7618336E-3,8.698246E-3,1.9963093E-3,4.652274E-3,1.8517308E-4,2.9829526E-3,1.2229234E-2,-3.607479E-3,-8.247583E-4,6.3035735E-3,1.2586644E-4,3.6537184E-4,4.1220896E-2,1.345483E-2,3.467617E-3,2.693118E-3,6.532399E-3,-1.9264634E-3,1.6168365E-3,-2.9858472E-4,-7.1583916E-3,3.9431714E-3,1.2716412E-2,4.083468E-4,-4.5062494E-3,4.967139E-3,-5.9766637E-4],"categories":[],"categories_nodes":[],"categories_segments":[],"categories_sizes":[],"default_left":[1,0,0,0,0,0,0,1,0,0,0,0,0,1,0,1,0,0,0,0,0,0,0,0,0,0,0,1,0,0,0,0,0,0,0,0,0,0,0,0,0,0,0,0,0,0,0,0,0,0,0,0,0,0,0,0,0,0,0,0,0,0,0],"id":14,"left_children":[1,3,5,7,9,11,13,15,17,19,21,23,25,27,29,31,33,35,37,39,41,43,45,47,49,51,53,55,57,59,61,-1,-1,-1,-1,-1,-1,-1,-1,-1,-1,-1,-1,-1,-1,-1,-1,-1,-1,-1,-1,-1,-1,-1,-1,-1,-1,-1,-1,-1,-1,-1,-1],"loss_changes":[6.6671326E1,4.9991924E1,1.1682638E2,5.6783924E1,4.716759E1,8.460161E1,1.8462967E1,4.2464554E1,4.53435E1,4.871292E1,2.1278423E1,8.903137E1,3.3323677E1,3.15368E1,1.0943318E1,1.0142893E2,6.425392E1,3.1453247E1,9.459102E0,4.8569527E1,4.135166E1,1.24272995E1,3.3074448E1,4.7095505E1,5.690503E1,1.67611E1,1.2651823E1,5.0265856E0,1.2934921E1,4.3070555E0,2.631403E1,0E0,0E0,0E0,0E0,0E0,0E0,0E0,0E0,0E0,0E0,0E0,0E0,0E0,0E0,0E0,0E0,0E0,0E0,0E0,0E0,0E0,0E0,0E0,0E0,0E0,0E0,0E0,0E0,0E0,0E0,0E0,0E0],"parents":[2147483647,0,0,1,1,2,2,3,3,4,4,5,5,6,6,7,7,8,8,9,9,10,10,11,11,12,12,13,13,14,14,15,15,16,16,17,17,18,18,19,19,20,20,21,21,22,22,23,23,24,24,25,25,26,26,27,27,28,28,29,29,30,30],"right_children":[2,4,6,8,10,12,14,16,18,20,22,24,26,28,30,32,34,36,38,40,42,44,46,48,50,52,54,56,58,60,62,-1,-1,-1,-1,-1,-1,-1,-1,-1,-1,-1,-1,-1,-1,-1,-1,-1,-1,-1,-1,-1,-1,-1,-1,-1,-1,-1,-1,-1,-1,-1,-1],"split_conditions":[-1.3398379E-2,8.413017E-3,-1.0182619E-2,-2.4812818E-3,1.5791535E-2,-2.650411E-1,-2.015306E-1,6.9987774E-4,-1.51159465E-2,1.32033825E-2,-3.79017E-3,-4.1303277E-2,7.420778E-5,-2.925846E-2,-3.0119479E-2,-2.3023784E-3,9.152889E-4,-1.55083835E-2,-3.2764155E-1,-1.6479507E-1,7.122755E-5,4.4303775E-2,1.734817E-2,-1.7128593E-1,4.7028065E-5,-1.1750013E-2,-4.6026975E-2,-3.705269E-2,-2.0476621E-1,-3.6853015E-2,-2.1743298E-2,-3.026784E-4,-3.3750685E-3,7.91306E-3,2.2627285E-4,-2.1937448E-3,-6.7618336E-3,8.698246E-3,1.9963093E-3,4.652274E-3,1.8517308E-4,2.9829526E-3,1.2229234E-2,-3.607479E-3,-8.247583E-4,6.3035735E-3,1.2586644E-4,3.6537184E-4,4.1220896E-2,1.345483E-2,3.467617E-3,2.693118E-3,6.532399E-3,-1.9264634E-3,1.6168365E-3,-2.9858472E-4,-7.1583916E-3,3.9431714E-3,1.2716412E-2,4.083468E-4,-4.5062494E-3,4.967139E-3,-5.9766637E-4],"split_indices":[180,183,180,9,183,190,328,304,180,183,9,181,0,252,181,304,304,180,6,328,0,167,183,17,0,180,147,252,328,181,181,0,0,0,0,0,0,0,0,0,0,0,0,0,0,0,0,0,0,0,0,0,0,0,0,0,0,0,0,0,0,0,0],"split_type":[0,0,0,0,0,0,0,0,0,0,0,0,0,0,0,0,0,0,0,0,0,0,0,0,0,0,0,0,0,0,0,0,0,0,0,0,0,0,0,0,0,0,0,0,0,0,0,0,0,0,0,0,0,0,0,0,0,0,0,0,0,0,0],"sum_hessian":[2.039056E6,1.818115E6,2.20941E5,1.307818E6,5.10297E5,9.0059E4,1.30882E5,1.186777E6,1.21041E5,2.23919E5,2.86378E5,1.8414E4,7.1645E4,8.587E3,1.22295E5,7.16086E5,4.70691E5,1.10842E5,1.0199E4,1.65636E5,5.8283E4,9.4421E4,1.91957E5,1.142E3,1.7272E4,3.3159E4,3.8486E4,3.732E3,4.855E3,8.015E3,1.1428E5,6.27952E5,8.8134E4,7.955E3,4.62736E5,9.8662E4,1.218E4,1.85E3,8.349E3,1.9896E4,1.4574E5,5.4568E4,3.715E3,1.3463E4,8.0958E4,6.449E3,1.85508E5,2.64E2,8.78E2,6.713E3,1.0559E4,1.8475E4,1.4684E4,9.684E3,2.8802E4,2.651E3,1.081E3,2.568E3,2.287E3,1.602E3,6.413E3,6.478E3,1.07802E5],"tree_param":{"num_deleted":"0","num_feature":"421","num_nodes":"63","size_leaf_vector":"1"}},{"base_weights":[2.9649884E-5,2.3585507E-3,-8.035482E-3,-1.606632E-3,1.4054997E-2,-4.324171E-3,-4.672095E-2,-2.1965155E-2,4.6254047E-3,2.2374488E-2,8.838031E-5,-7.952909E-3,4.1973364E-2,7.065834E-2,-7.7433825E-2,-1.5702428E-2,-2.1239007E-1,-2.3091785E-3,2.1892684E-2,1.8196119E-2,5.0135825E-2,-6.520769E-3,2.1555655E-2,-1.0971416E-2,1.9932559E-2,1.0607528E-1,1.9158842E-2,3.4913537E-1,2.9917853E-2,-1.5347254E-1,-5.6070626E-2,-7.0767E-4,-4.5595206E-3,-9.6137645E-3,-2.09226E-2,-6.2563345E-3,-4.625007E-5,-1.5343587E-3,2.1189817E-3,2.446924E-3,9.866182E-4,7.2934083E-3,1.886703E-3,-1.5436517E-4,-3.253408E-3,-5.424179E-4,2.9479899E-3,-2.1515423E-3,-5.650529E-4,6.36871E-3,1.8471603E-4,1.54927485E-2,-1.16053E-3,-6.167296E-4,2.5474734E-3,4.4576563E-2,1.436395E-2,1.0024519E-2,1.0874984E-4,-2.1240722E-2,-6.148872E-3,-8.052417E-3,-7.2948786E-4],"categories":[],"categories_nodes":[],"categories_segments":[],"categories_sizes":[],"default_left":[0,0,0,0,1,0,0,0,0,1,0,1,0,0,0,0,0,0,0,1,0,1,0,0,0,0,1,0,1,1,0,0,0,0,0,0,0,0,0,0,0,0,0,0,0,0,0,0,0,0,0,0,0,0,0,0,0,0,0,0,0,0,0],"id":15,"left_children":[1,3,5,7,9,11,13,15,17,19,21,23,25,27,29,31,33,35,37,39,41,43,45,47,49,51,53,55,57,59,61,-1,-1,-1,-1,-1,-1,-1,-1,-1,-1,-1,-1,-1,-1,-1,-1,-1,-1,-1,-1,-1,-1,-1,-1,-1,-1,-1,-1,-1,-1,-1,-1],"loss_changes":[3.8297985E1,7.337738E1,6.5591064E1,1.4991252E2,4.654296E1,7.003383E1,1.4417879E2,3.3024646E2,1.0832415E2,2.911586E1,2.1216564E1,3.2538586E1,4.4304108E1,9.4078354E1,5.1474808E1,7.50817E1,2.9911224E1,8.13509E1,3.2049416E1,1.5257095E1,3.2837807E1,1.711126E1,1.2992796E1,2.163821E1,3.697581E1,7.295859E1,6.4262514E0,3.343582E1,1.8292782E1,5.4551483E1,4.5666534E1,0E0,0E0,0E0,0E0,0E0,0E0,0E0,0E0,0E0,0E0,0E0,0E0,0E0,0E0,0E0,0E0,0E0,0E0,0E0,0E0,0E0,0E0,0E0,0E0,0E0,0E0,0E0,0E0,0E0,0E0,0E0,0E0],"parents":[2147483647,0,0,1,1,2,2,3,3,4,4,5,5,6,6,7,7,8,8,9,9,10,10,11,11,12,12,13,13,14,14,15,15,16,16,17,17,18,18,19,19,20,20,21,21,22,22,23,23,24,24,25,25,26,26,27,27,28,28,29,29,30,30],"right_children":[2,4,6,8,10,12,14,16,18,20,22,24,26,28,30,32,34,36,38,40,42,44,46,48,50,52,54,56,58,60,62,-1,-1,-1,-1,-1,-1,-1,-1,-1,-1,-1,-1,-1,-1,-1,-1,-1,-1,-1,-1,-1,-1,-1,-1,-1,-1,-1,-1,-1,-1,-1,-1],"split_conditions":[7.420778E-5,5.2571297E-5,5.7958066E-2,5.6414783E-2,-7.055071E-2,5.696261E-2,-2.0287722E-2,5.5541992E-2,4.1902065E-5,-7.985473E-3,-4.0334314E-2,3.373784E-2,-1.243217E-1,-3.5917974E-1,-6.3726604E-2,5.4781437E-2,-2.0600274E-1,-2.4104983E-2,-2.8872043E-2,-6.9395304E-3,-1.3618353E-1,-2.7096689E-2,1.00001E0,-8.65528E-2,2.2014022E-2,1.06573105E-4,-3.1201482E-1,1.05679035E-4,-2.3378989E-1,-7.7251464E-2,-2.3335516E-3,-7.0767E-4,-4.5595206E-3,-9.6137645E-3,-2.09226E-2,-6.2563345E-3,-4.625007E-5,-1.5343587E-3,2.1189817E-3,2.446924E-3,9.866182E-4,7.2934083E-3,1.886703E-3,-1.5436517E-4,-3.253408E-3,-5.424179E-4,2.9479899E-3,-2.1515423E-3,-5.650529E-4,6.36871E-3,1.8471603E-4,1.54927485E-2,-1.16053E-3,-6.167296E-4,2.5474734E-3,4.4576563E-2,1.436395E-2,1.0024519E-2,1.0874984E-4,-2.1240722E-2,-6.148872E-3,-8.052417E-3,-7.2948786E-4],"split_indices":[0,0,167,167,332,167,183,167,0,289,332,303,192,35,181,167,395,408,337,183,395,408,149,185,305,0,18,0,35,188,183,0,0,0,0,0,0,0,0,0,0,0,0,0,0,0,0,0,0,0,0,0,0,0,0,0,0,0,0,0,0,0,0],"split_type":[0,0,0,0,0,0,0,0,0,0,0,0,0,0,0,0,0,0,0,0,0,0,0,0,0,0,0,0,0,0,0,0,0,0,0,0,0,0,0,0,0,0,0,0,0,0,0,0,0,0,0,0,0,0,0,0,0,0,0,0,0,0,0],"sum_hessian":[2.038987E6,1.582132E6,4.56855E5,1.18157E6,4.00562E5,4.16865E5,3.999E4,2.76925E5,9.04645E5,2.51029E5,1.49533E5,3.86568E5,3.0297E4,8.293E3,3.1697E4,2.68109E5,8.816E3,6.45436E5,2.59209E5,2.18192E5,3.2837E4,1.14333E5,3.52E4,3.48812E5,3.7756E4,7.951E3,2.2346E4,1.057E3,7.236E3,6.95E3,2.4747E4,2.24673E5,4.3436E4,2.27E3,6.546E3,1.5546E4,6.2989E5,1.8606E4,2.40603E5,8.3162E4,1.3503E5,1.4364E4,1.8473E4,9.9627E4,1.4706E4,1.1293E4,2.3907E4,8.0344E4,2.68468E5,9.192E3,2.8564E4,4.849E3,3.102E3,6.515E3,1.5831E4,5.32E2,5.25E2,1.771E3,5.465E3,3.161E3,3.789E3,1.3604E4,1.1143E4],"tree_param":{"num_deleted":"0","num_feature":"421","num_nodes":"63","size_leaf_vector":"1"}},{"base_weights":[3.6943762E-5,2.0000807E-3,-1.3128416E-2,-6.0029333E-3,7.372472E-3,-4.3496147E-2,-9.873107E-3,-1.8972203E-2,-2.7010113E-3,-2.9372295E-2,8.357366E-3,-9.282689E-3,-6.7915514E-2,7.7175302E-3,-1.5091534E-2,-1.8270302E-1,-1.0845017E-2,2.3602337E-2,-6.3438024E-3,-8.078303E-2,1.2191094E-2,1.0391239E-2,-1.0838978E-2,-8.851477E-2,-6.445475E-3,-3.816178E-2,-1.21382765E-1,-6.384757E-3,2.0381158E-2,-6.858948E-2,-1.2455221E-2,-1.5527939E-3,-1.7122705E-2,7.138401E-4,-3.120403E-3,2.8928001E-3,-4.6186273E-5,-7.822516E-5,-2.7042436E-3,-2.012555E-2,-3.860066E-3,-6.806591E-4,2.8595133E-3,7.3981436E-4,2.8298094E-3,-2.0468322E-4,-1.9209585E-3,3.8657563E-3,-1.0996906E-2,-1.8600017E-3,4.1065823E-6,-5.3117964E-3,-8.409984E-4,-1.151337E-2,-4.5117307E-3,1.2777288E-3,-1.2984463E-3,-1.4075413E-3,2.2142313E-3,-2.0145813E-3,-6.820872E-3,-5.9046876E-4,-2.6381572E-3],"categories":[],"categories_nodes":[],"categories_segments":[],"categories_sizes":[],"default_left":[1,0,0,0,0,0,0,0,0,0,0,0,1,1,0,0,0,1,0,0,0,1,1,0,1,0,0,0,0,1,0,0,0,0,0,0,0,0,0,0,0,0,0,0,0,0,0,0,0,0,0,0,0,0,0,0,0,0,0,0,0,0,0],"id":16,"left_children":[1,3,5,7,9,11,13,15,17,19,21,23,25,27,29,31,33,35,37,39,41,43,45,47,49,51,53,55,57,59,61,-1,-1,-1,-1,-1,-1,-1,-1,-1,-1,-1,-1,-1,-1,-1,-1,-1,-1,-1,-1,-1,-1,-1,-1,-1,-1,-1,-1,-1,-1,-1,-1],"loss_changes":[5.2683537E1,7.626985E1,2.6146812E1,3.0511593E1,3.8411526E1,2.139228E1,2.1930767E1,1.9239203E2,5.4416832E1,5.9206158E1,4.0358612E1,2.394878E0,2.3760773E1,9.76175E0,2.5982723E1,2.1560135E1,6.88498E1,1.7527756E1,6.907564E1,6.8353546E1,6.6684566E0,3.5819283E1,9.854061E0,2.0428636E0,1.0363791E0,6.634096E0,5.219452E0,4.951281E0,6.099474E0,4.586132E0,1.7988993E1,0E0,0E0,0E0,0E0,0E0,0E0,0E0,0E0,0E0,0E0,0E0,0E0,0E0,0E0,0E0,0E0,0E0,0E0,0E0,0E0,0E0,0E0,0E0,0E0,0E0,0E0,0E0,0E0,0E0,0E0,0E0,0E0],"parents":[2147483647,0,0,1,1,2,2,3,3,4,4,5,5,6,6,7,7,8,8,9,9,10,10,11,11,12,12,13,13,14,14,15,15,16,16,17,17,18,18,19,19,20,20,21,21,22,22,23,23,24,24,25,25,26,26,27,27,28,28,29,29,30,30],"right_children":[2,4,6,8,10,12,14,16,18,20,22,24,26,28,30,32,34,36,38,40,42,44,46,48,50,52,54,56,58,60,62,-1,-1,-1,-1,-1,-1,-1,-1,-1,-1,-1,-1,-1,-1,-1,-1,-1,-1,-1,-1,-1,-1,-1,-1,-1,-1,-1,-1,-1,-1,-1,-1],"split_conditions":[-2.5873184E-3,-3.5348028E-2,-1.0202429E-1,-4.8622906E-2,3.4213066E-5,-1.31917E-1,-5.4913014E-2,-9.218097E-2,-4.2465985E-2,-8.005202E-3,1.08003616E-4,-2.0476621E-1,6.1597288E-2,-1.08607024E-1,-5.425653E-2,-8.055106E-2,-5.3569227E-2,-1.603095E-1,-3.1215847E-3,-2.8078166E-1,1.116097E-3,-3.0119479E-2,-4.739344E-3,4.8412156E-1,-2.1827167E-1,3.4357262E-1,4.8441023E-1,-9.2945725E-2,-3.5031855E-2,-3.120861E-1,4.7028065E-5,-1.5527939E-3,-1.7122705E-2,7.138401E-4,-3.120403E-3,2.8928001E-3,-4.6186273E-5,-7.822516E-5,-2.7042436E-3,-2.012555E-2,-3.860066E-3,-6.806591E-4,2.8595133E-3,7.3981436E-4,2.8298094E-3,-2.0468322E-4,-1.9209585E-3,3.8657563E-3,-1.0996906E-2,-1.8600017E-3,4.1065823E-6,-5.3117964E-3,-8.409984E-4,-1.151337E-2,-4.5117307E-3,1.2777288E-3,-1.2984463E-3,-1.4075413E-3,2.2142313E-3,-2.0145813E-3,-6.820872E-3,-5.9046876E-4,-2.6381572E-3],"split_indices":[9,184,182,181,3,182,181,184,181,9,3,328,420,190,181,181,181,328,9,159,420,181,9,101,32,155,147,182,297,420,3,0,0,0,0,0,0,0,0,0,0,0,0,0,0,0,0,0,0,0,0,0,0,0,0,0,0,0,0,0,0,0,0],"split_type":[0,0,0,0,0,0,0,0,0,0,0,0,0,0,0,0,0,0,0,0,0,0,0,0,0,0,0,0,0,0,0,0,0,0,0,0,0,0,0,0,0,0,0,0,0,0,0,0,0,0,0,0,0,0,0,0,0,0,0,0,0,0,0],"sum_hessian":[2.038418E6,1.773907E6,2.64511E5,7.12509E5,1.061398E6,2.5607E4,2.38904E5,1.44587E5,5.67922E5,2.7705E4,1.033693E6,1.0666E4,1.4941E4,5.4657E4,1.84247E5,6.836E3,1.37751E5,6.9083E4,4.98839E5,1.2385E4,1.532E4,9.34666E5,9.9027E4,3.67E2,1.0299E4,9.601E3,5.34E3,2.5859E4,2.8798E4,8.651E3,1.75596E5,7.15E2,6.121E3,7.9061E4,5.869E4,4.8138E4,2.0945E4,4.11498E5,8.7341E4,2.276E3,1.0109E4,7.9E3,7.42E3,8.71401E5,6.3265E4,5.7799E4,4.1228E4,8.6E1,2.81E2,3.043E3,7.256E3,5.143E3,4.458E3,4.409E3,9.31E2,7.597E3,1.8262E4,3.861E3,2.4937E4,1.808E3,6.843E3,1.35649E5,3.9947E4],"tree_param":{"num_deleted":"0","num_feature":"421","num_nodes":"63","size_leaf_vector":"1"}},{"base_weights":[3.447394E-5,-5.571537E-3,3.825443E-3,-2.4368498E-3,-1.700371E-2,3.4664005E-2,2.3413138E-3,-1.2603655E-2,6.5981112E-3,-8.036961E-4,-2.7945817E-2,8.692916E-2,-9.014566E-3,1.6440751E-2,5.1861984E-4,-5.088889E-3,-6.003562E-2,1.5388786E-2,-3.3031604E-3,1.7629439E-2,-2.2511303E-2,-8.986198E-2,-1.7417848E-2,2.2401309E-1,5.04163E-2,-2.6158022E-2,3.8783465E-2,1.07602095E-2,6.353038E-2,1.1121957E-2,-2.5203112E-3,-2.879539E-3,3.295776E-5,-3.2482392E-3,-7.857483E-3,2.0881733E-3,-1.844711E-3,2.1354255E-5,-2.6613905E-3,3.1403085E-4,4.969504E-3,2.8293692E-3,-3.3222134E-3,-9.394099E-3,-3.0182586E-3,-1.1130532E-3,-3.2699655E-3,5.297412E-2,1.6999701E-2,6.586704E-3,1.7211047E-3,3.8902534E-3,-2.85873E-3,5.2954536E-3,-4.511065E-3,-8.923214E-5,1.8705401E-3,3.7385873E-3,2.2654038E-2,3.3984252E-4,3.1703725E-3,-7.2812324E-4,4.036357E-4],"categories":[],"categories_nodes":[],"categories_segments":[],"categories_sizes":[],"default_left":[0,0,0,0,0,1,0,0,1,0,0,0,0,0,0,0,0,1,1,1,0,0,1,0,1,0,0,0,0,0,0,0,0,0,0,0,0,0,0,0,0,0,0,0,0,0,0,0,0,0,0,0,0,0,0,0,0,0,0,0,0,0,0],"id":17,"left_children":[1,3,5,7,9,11,13,15,17,19,21,23,25,27,29,31,33,35,37,39,41,43,45,47,49,51,53,55,57,59,61,-1,-1,-1,-1,-1,-1,-1,-1,-1,-1,-1,-1,-1,-1,-1,-1,-1,-1,-1,-1,-1,-1,-1,-1,-1,-1,-1,-1,-1,-1,-1,-1],"loss_changes":[4.332317E1,2.9470814E1,5.56597E1,5.928635E1,3.1369423E1,1.27476875E2,2.9818077E1,1.0824507E2,2.9744274E1,2.8549149E1,6.884725E1,1.2721997E2,2.4927423E1,3.5527016E1,3.310846E1,4.1448147E1,2.9432434E1,6.2073307E1,1.6042099E1,2.2010761E1,3.0501713E1,1.7405182E1,8.1920185E0,5.0289215E1,1.6473473E1,1.2176704E1,1.7476025E1,1.5815084E1,5.6585674E1,4.2762E1,3.5258606E1,0E0,0E0,0E0,0E0,0E0,0E0,0E0,0E0,0E0,0E0,0E0,0E0,0E0,0E0,0E0,0E0,0E0,0E0,0E0,0E0,0E0,0E0,0E0,0E0,0E0,0E0,0E0,0E0,0E0,0E0,0E0,0E0],"parents":[2147483647,0,0,1,1,2,2,3,3,4,4,5,5,6,6,7,7,8,8,9,9,10,10,11,11,12,12,13,13,14,14,15,15,16,16,17,17,18,18,19,19,20,20,21,21,22,22,23,23,24,24,25,25,26,26,27,27,28,28,29,29,30,30],"right_children":[2,4,6,8,10,12,14,16,18,20,22,24,26,28,30,32,34,36,38,40,42,44,46,48,50,52,54,56,58,60,62,-1,-1,-1,-1,-1,-1,-1,-1,-1,-1,-1,-1,-1,-1,-1,-1,-1,-1,-1,-1,-1,-1,-1,-1,-1,-1,-1,-1,-1,-1,-1,-1],"split_conditions":[-3.338784E-2,7.420778E-5,-3.0569583E-2,-3.993714E-2,-3.8484186E-2,-1.3178289E-2,-3.8739058E-1,-4.0831476E-2,-3.8251102E-2,9.025574E-3,-3.7048727E-2,-2.808357E-1,2.7920008E-3,-3.8969466E-1,-1.2375453E-1,-8.861253E-2,3.629923E-5,2.2017956E-3,4.0593904E-1,-1.2271702E-3,-5.3997546E-2,-5.9259266E-2,2.9640716E-1,-4.0281326E-2,6.1709344E-2,-2.0476621E-1,2.9931325E-1,5.2222013E-3,5.815375E-2,-1.5341654E-1,1.8706721E-1,-2.879539E-3,3.295776E-5,-3.2482392E-3,-7.857483E-3,2.0881733E-3,-1.844711E-3,2.1354255E-5,-2.6613905E-3,3.1403085E-4,4.969504E-3,2.8293692E-3,-3.3222134E-3,-9.394099E-3,-3.0182586E-3,-1.1130532E-3,-3.2699655E-3,5.297412E-2,1.6999701E-2,6.586704E-3,1.7211047E-3,3.8902534E-3,-2.85873E-3,5.2954536E-3,-4.511065E-3,-8.923214E-5,1.8705401E-3,3.7385873E-3,2.2654038E-2,3.3984252E-4,3.1703725E-3,-7.2812324E-4,4.036357E-4],"split_indices":[184,1,184,181,181,183,14,181,182,14,181,161,183,14,328,184,1,183,143,183,184,184,152,337,189,328,14,183,167,328,161,0,0,0,0,0,0,0,0,0,0,0,0,0,0,0,0,0,0,0,0,0,0,0,0,0,0,0,0,0,0,0,0],"split_type":[0,0,0,0,0,0,0,0,0,0,0,0,0,0,0,0,0,0,0,0,0,0,0,0,0,0,0,0,0,0,0,0,0,0,0,0,0,0,0,0,0,0,0,0,0,0,0,0,0,0,0,0,0,0,0,0,0,0,0,0,0,0,0],"sum_hessian":[2.038524E6,8.22387E5,1.216137E6,6.45418E5,1.76969E5,5.5838E4,1.160299E6,3.03688E5,3.4173E5,7.1345E4,1.05624E5,2.542E4,3.0418E4,1.32823E5,1.027476E6,2.62156E5,4.1532E4,1.81018E5,1.60712E5,3.8582E4,3.2763E4,1.5348E4,9.0276E4,5.345E3,2.0075E4,2.2389E4,8.029E3,1.18527E5,1.4296E4,2.2888E5,7.98596E5,4.1814E4,2.20342E5,2.4924E4,1.6608E4,1.44978E5,3.604E4,1.42651E5,1.8061E4,2.8795E4,9.787E3,7.525E3,2.5238E4,1.1079E4,4.269E3,7.5037E4,1.5239E4,2.95E2,5.05E3,1.0539E4,9.536E3,2.123E3,2.0266E4,6.387E3,1.642E3,5.7937E4,6.059E4,1.3051E4,1.245E3,1.80089E5,4.8791E4,4.35643E5,3.62953E5],"tree_param":{"num_deleted":"0","num_feature":"421","num_nodes":"63","size_leaf_vector":"1"}},{"base_weights":[-4.71794E-5,-1.7230778E-3,1.3752838E-2,-5.5741873E-3,4.4047832E-3,3.7516013E-2,-2.5602928E-3,-4.976887E-2,-4.97369E-3,4.942128E-2,3.4738781E-3,9.54751E-2,2.4693057E-2,2.9285181E-2,-5.992508E-3,-2.3839884E-2,-9.035021E-2,-1.0666175E-2,-3.5146432E-4,1.04457095E-1,7.501515E-3,1.8152202E-3,1.9232599E-2,5.518428E-1,8.4901035E-2,5.0148588E-2,1.1755847E-2,8.339659E-2,3.91174E-3,2.7735084E-3,-1.36649525E-2,4.6947515E-3,-3.2164063E-3,-5.2180598E-3,-9.39922E-3,-1.9557078E-3,-6.345773E-4,2.2356035E-3,-1.7160946E-4,3.4676658E-3,1.2335667E-2,5.0764964E-3,-3.882215E-4,-3.9164288E-4,4.879809E-4,2.320511E-3,1.102435E-3,5.0558206E-2,1.017421E-3,3.8774803E-3,1.3288227E-2,6.798987E-3,1.8700112E-3,-1.4865085E-3,1.7992003E-3,3.6885864E-3,1.0611447E-2,-2.6274682E-3,1.616517E-3,4.4406257E-3,-4.1505066E-4,-4.2189555E-3,-5.6560984E-4],"categories":[],"categories_nodes":[],"categories_segments":[],"categories_sizes":[],"default_left":[1,0,0,0,0,0,0,0,0,0,1,0,0,1,0,0,0,0,0,0,0,1,0,0,0,1,0,0,0,0,0,0,0,0,0,0,0,0,0,0,0,0,0,0,0,0,0,0,0,0,0,0,0,0,0,0,0,0,0,0,0,0,0],"id":18,"left_children":[1,3,5,7,9,11,13,15,17,19,21,23,25,27,29,31,33,35,37,39,41,43,45,47,49,51,53,55,57,59,61,-1,-1,-1,-1,-1,-1,-1,-1,-1,-1,-1,-1,-1,-1,-1,-1,-1,-1,-1,-1,-1,-1,-1,-1,-1,-1,-1,-1,-1,-1,-1,-1],"loss_changes":[4.7152496E1,4.2904137E1,8.558844E1,2.9626778E1,2.940067E1,6.6786804E1,1.4308674E1,1.574128E1,2.8981213E1,3.278997E1,1.7967136E1,7.8483505E1,2.423336E1,1.748434E1,7.9486847E0,1.0190257E1,3.4292374E0,1.947557E1,2.7147842E1,1.6001434E1,5.105464E0,1.5758418E1,3.3154907E0,8.782539E0,4.474111E1,2.0911388E1,1.351601E1,6.7569256E0,4.584449E0,2.0972343E1,1.5905964E1,0E0,0E0,0E0,0E0,0E0,0E0,0E0,0E0,0E0,0E0,0E0,0E0,0E0,0E0,0E0,0E0,0E0,0E0,0E0,0E0,0E0,0E0,0E0,0E0,0E0,0E0,0E0,0E0,0E0,0E0,0E0,0E0],"parents":[2147483647,0,0,1,1,2,2,3,3,4,4,5,5,6,6,7,7,8,8,9,9,10,10,11,11,12,12,13,13,14,14,15,15,16,16,17,17,18,18,19,19,20,20,21,21,22,22,23,23,24,24,25,25,26,26,27,27,28,28,29,29,30,30],"right_children":[2,4,6,8,10,12,14,16,18,20,22,24,26,28,30,32,34,36,38,40,42,44,46,48,50,52,54,56,58,60,62,-1,-1,-1,-1,-1,-1,-1,-1,-1,-1,-1,-1,-1,-1,-1,-1,-1,-1,-1,-1,-1,-1,-1,-1,-1,-1,-1,-1,-1,-1,-1,-1],"split_conditions":[-1.3398379E-2,2.1814406E-1,-1.0182619E-2,-3.812337E-2,-4.686684E-1,-2.808357E-1,-1.7369717E-2,7.58661E-2,-1.4895031E-1,-3.9039794E-1,3.4329742E-1,-4.0281326E-2,4.7028065E-5,-2.1743298E-2,4.720688E-5,-5.597964E-2,-8.8629127E-4,-1.3578E-1,-1.4456224E-1,4.843561E-1,1.00001E0,-1.228112E-2,5.3162217E-2,-3.0458063E-2,5.3162217E-2,6.1709344E-2,-1.5559885E-1,-3.0119479E-2,-1.6721818E-1,-2.1743298E-2,4.839897E-5,4.6947515E-3,-3.2164063E-3,-5.2180598E-3,-9.39922E-3,-1.9557078E-3,-6.345773E-4,2.2356035E-3,-1.7160946E-4,3.4676658E-3,1.2335667E-2,5.0764964E-3,-3.882215E-4,-3.9164288E-4,4.879809E-4,2.320511E-3,1.102435E-3,5.0558206E-2,1.017421E-3,3.8774803E-3,1.3288227E-2,6.798987E-3,1.8700112E-3,-1.4865085E-3,1.7992003E-3,3.6885864E-3,1.0611447E-2,-2.6274682E-3,1.616517E-3,4.4406257E-3,-4.1505066E-4,-4.2189555E-3,-5.6560984E-4],"split_indices":[180,161,180,183,6,161,296,167,19,22,390,337,1,181,1,130,418,185,19,163,198,183,167,22,167,189,397,181,328,181,1,0,0,0,0,0,0,0,0,0,0,0,0,0,0,0,0,0,0,0,0,0,0,0,0,0,0,0,0,0,0,0,0],"split_type":[0,0,0,0,0,0,0,0,0,0,0,0,0,0,0,0,0,0,0,0,0,0,0,0,0,0,0,0,0,0,0,0,0,0,0,0,0,0,0,0,0,0,0,0,0,0,0,0,0,0,0,0,0,0,0,0,0,0,0,0,0,0,0],"sum_hessian":[2.038823E6,1.81804E6,2.20783E5,1.11642E6,7.0162E5,8.987E4,1.30913E5,1.4964E4,1.101456E6,1.4213E4,6.87407E5,1.6279E4,7.3591E4,1.2735E4,1.18178E5,9.132E3,5.832E3,4.93581E5,6.07875E5,6.144E3,8.069E3,6.21948E5,6.5459E4,3.67E2,1.5912E4,2.4796E4,4.8795E4,4.064E3,8.671E3,5.5157E4,6.3021E4,1.378E3,7.754E3,2.425E3,3.407E3,1.0088E5,3.92701E5,3.5806E4,5.72069E5,2.41E3,3.734E3,1.512E3,6.557E3,2.36178E5,3.8577E5,2.8408E4,3.7051E4,3.39E2,2.8E1,1.0295E4,5.617E3,1.1987E4,1.2809E4,1.1912E4,3.6883E4,2.079E3,1.985E3,2.624E3,6.047E3,7.386E3,4.7771E4,1.0233E4,5.2788E4],"tree_param":{"num_deleted":"0","num_feature":"421","num_nodes":"63","size_leaf_vector":"1"}},{"base_weights":[-3.7999903E-6,1.8726932E-2,-1.0561309E-3,3.5512663E-2,1.24969585E-2,-2.6733372E-3,1.1853877E-2,1.2113945E-2,5.4059487E-2,2.7367189E-3,2.1796616E-2,-7.192922E-3,3.1276196E-3,3.2897387E-2,-2.1565405E-3,4.1111927E-3,9.254682E-2,6.2079743E-2,-1.8750424E-2,1.4596395E-2,-9.75014E-3,3.4801774E-2,1.2045672E-2,-1.0866343E-2,-6.209243E-4,-4.315775E-2,3.7679398E-3,1.3727294E-2,6.290166E-2,2.1730155E-2,-6.414379E-3,-4.987717E-3,1.2340915E-3,2.2429263E-2,1.9906613E-3,3.317102E-3,7.0108385E-3,-3.0166921E-3,7.910204E-3,2.2843594E-3,-2.677698E-4,-9.7434345E-4,9.506922E-3,2.5531081E-3,6.367255E-3,1.7649259E-3,-7.4238336E-4,-1.4845228E-3,-3.4417788E-4,5.1049893E-3,-2.8381665E-4,-6.9057983E-3,-8.387828E-4,1.3954008E-4,1.5457624E-3,2.775591E-3,-7.4866234E-4,1.11338375E-2,2.9310405E-3,5.6978418E-3,1.5180233E-4,-3.5306448E-4,-3.3003448E-3],"categories":[],"categories_nodes":[],"categories_segments":[],"categories_sizes":[],"default_left":[1,0,1,0,0,1,0,0,0,0,0,0,0,0,0,0,0,1,1,0,1,1,1,0,0,0,0,0,1,1,1,0,0,0,0,0,0,0,0,0,0,0,0,0,0,0,0,0,0,0,0,0,0,0,0,0,0,0,0,0,0,0,0],"id":19,"left_children":[1,3,5,7,9,11,13,15,17,19,21,23,25,27,29,31,33,35,37,39,41,43,45,47,49,51,53,55,57,59,61,-1,-1,-1,-1,-1,-1,-1,-1,-1,-1,-1,-1,-1,-1,-1,-1,-1,-1,-1,-1,-1,-1,-1,-1,-1,-1,-1,-1,-1,-1,-1,-1],"loss_changes":[4.0185703E1,1.1339153E1,4.0301456E1,1.27360115E1,7.1786423E0,4.49754E1,6.335575E1,8.352995E0,9.563965E0,5.7159076E0,5.1344757E0,2.3277523E1,2.2263683E1,4.9398026E1,1.3119987E1,7.756954E0,1.3930172E1,6.9659348E0,3.0654852E0,4.3371563E0,3.9813669E0,3.2777996E0,4.2207384E0,2.7949448E1,5.7301804E1,1.3046404E1,2.2739447E1,2.2459267E1,6.487439E1,1.7685787E1,8.009945E0,0E0,0E0,0E0,0E0,0E0,0E0,0E0,0E0,0E0,0E0,0E0,0E0,0E0,0E0,0E0,0E0,0E0,0E0,0E0,0E0,0E0,0E0,0E0,0E0,0E0,0E0,0E0,0E0,0E0,0E0,0E0,0E0],"parents":[2147483647,0,0,1,1,2,2,3,3,4,4,5,5,6,6,7,7,8,8,9,9,10,10,11,11,12,12,13,13,14,14,15,15,16,16,17,17,18,18,19,19,20,20,21,21,22,22,23,23,24,24,25,25,26,26,27,27,28,28,29,29,30,30],"right_children":[2,4,6,8,10,12,14,16,18,20,22,24,26,28,30,32,34,36,38,40,42,44,46,48,50,52,54,56,58,60,62,-1,-1,-1,-1,-1,-1,-1,-1,-1,-1,-1,-1,-1,-1,-1,-1,-1,-1,-1,-1,-1,-1,-1,-1,-1,-1,-1,-1,-1,-1,-1,-1],"split_conditions":[-4.5310396E-1,-3.7467617E-1,-1.3398379E-2,3.1213433E-1,3.2586157E-2,3.0301094E-2,-1.0182619E-2,1.05679035E-4,1.090765E-4,6.093979E-4,5.119127E-2,5.2222013E-3,-3.812337E-2,5.3162217E-2,-6.8686634E-2,-3.4350935E-1,1.06573105E-4,-3.5905707E-1,-1.5550333E-1,-1.6669178E-1,1.221168E-2,4.2166144E-1,6.093979E-4,-2.0222276E-2,5.743623E-3,3.4689903E-5,8.3729744E-2,4.9698055E-2,-2.0239335E-1,-2.8198719E-2,4.3725967E-1,-4.987717E-3,1.2340915E-3,2.2429263E-2,1.9906613E-3,3.317102E-3,7.0108385E-3,-3.0166921E-3,7.910204E-3,2.2843594E-3,-2.677698E-4,-9.7434345E-4,9.506922E-3,2.5531081E-3,6.367255E-3,1.7649259E-3,-7.4238336E-4,-1.4845228E-3,-3.4417788E-4,5.1049893E-3,-2.8381665E-4,-6.9057983E-3,-8.387828E-4,1.3954008E-4,1.5457624E-3,2.775591E-3,-7.4866234E-4,1.11338375E-2,2.9310405E-3,5.6978418E-3,1.5180233E-4,-3.5306448E-4,-3.3003448E-3],"split_indices":[4,189,180,159,167,189,180,0,0,183,167,183,183,167,332,158,0,17,17,14,184,34,183,180,183,0,167,14,189,408,160,0,0,0,0,0,0,0,0,0,0,0,0,0,0,0,0,0,0,0,0,0,0,0,0,0,0,0,0,0,0,0,0],"split_type":[0,0,0,0,0,0,0,0,0,0,0,0,0,0,0,0,0,0,0,0,0,0,0,0,0,0,0,0,0,0,0,0,0,0,0,0,0,0,0,0,0,0,0,0,0,0,0,0,0,0,0,0,0,0,0,0,0,0,0,0,0,0,0],"sum_hessian":[2.038772E6,1.08447E5,1.930325E6,2.9352E4,7.9095E4,1.715439E6,2.14886E5,1.298E4,1.6372E4,3.8594E4,4.0501E4,9.64214E5,7.51225E5,8.5886E4,1.29E5,1.1807E4,1.173E3,1.4748E4,1.624E3,1.9795E4,1.8799E4,1.7352E4,2.3149E4,6.18499E5,3.45715E5,1.0249E4,7.40976E5,5.2406E4,3.348E4,1.9514E4,1.09486E5,1.679E3,1.0128E4,3.35E2,8.38E2,6.973E3,7.775E3,1.413E3,2.11E2,1.1679E4,8.116E3,1.8536E4,2.63E2,1.5542E4,1.81E3,1.6287E4,6.862E3,3.13168E5,3.05331E5,1.4828E4,3.30887E5,4.765E3,5.484E3,6.46121E5,9.4855E4,2.8445E4,2.3961E4,9.809E3,2.3671E4,5.949E3,1.3565E4,1.02395E5,7.091E3],"tree_param":{"num_deleted":"0","num_feature":"421","num_nodes":"63","size_leaf_vector":"1"}},{"base_weights":[3.221044E-5,-1.7786523E-2,9.889739E-4,-2.03482E-2,2.8222011E-2,-5.4303766E-4,1.3845665E-2,-1.7600307E-2,-1.2634312E-1,9.995515E-2,-3.7018377E-2,-3.7835552E-3,5.203666E-3,3.3285044E-2,-2.6338355E-5,-1.2760794E-2,-4.0147927E-2,-1.9877717E-1,1.0836874E-2,2.8651955E-2,1.7546268E-1,-5.8494065E-2,5.7399966E-2,1.52541455E-2,-5.2181636E-3,-2.2316628E-4,1.01260515E-2,8.969821E-2,2.1257045E-2,3.4567658E-2,-2.384752E-3,-6.0613756E-4,-2.5344854E-3,-2.6950643E-3,-6.112327E-3,-2.0950409E-2,-9.953738E-3,6.7326864E-3,-2.6409437E-3,3.240804E-3,-7.6425774E-3,1.8643651E-3,1.9091075E-2,-3.102251E-3,-1.0494069E-2,9.765126E-3,-3.109459E-3,5.0277608E-3,4.1721165E-4,-2.7438519E-3,-3.7012435E-4,-8.993506E-4,4.526411E-4,2.474651E-4,1.8196867E-3,4.2881947E-2,6.772204E-3,-1.5461487E-4,2.9080657E-3,6.758196E-3,-2.1518365E-5,-2.3219394E-3,-3.6620568E-5],"categories":[],"categories_nodes":[],"categories_segments":[],"categories_sizes":[],"default_left":[0,1,1,1,0,1,0,1,0,0,0,0,1,0,0,0,1,0,0,0,1,0,0,0,0,0,0,0,1,0,0,0,0,0,0,0,0,0,0,0,0,0,0,0,0,0,0,0,0,0,0,0,0,0,0,0,0,0,0,0,0,0,0],"id":20,"left_children":[1,3,5,7,9,11,13,15,17,19,21,23,25,27,29,31,33,35,37,39,41,43,45,47,49,51,53,55,57,59,61,-1,-1,-1,-1,-1,-1,-1,-1,-1,-1,-1,-1,-1,-1,-1,-1,-1,-1,-1,-1,-1,-1,-1,-1,-1,-1,-1,-1,-1,-1,-1,-1],"loss_changes":[3.4756798E1,1.2244892E1,3.8110466E1,2.8656956E1,2.5649536E1,3.21951E1,5.5554756E1,1.0465427E1,2.4713455E1,1.4042114E1,5.8248854E0,3.0192385E1,1.6652237E1,5.8207306E1,9.807895E0,7.5907717E0,4.5232563E0,6.343643E0,2.4802122E0,1.5298921E0,9.6428795E0,3.3346481E0,2.8991947E0,3.5246925E1,2.382194E1,1.7114029E1,2.6694733E1,6.16782E1,2.1270823E1,1.2055871E1,5.493009E0,0E0,0E0,0E0,0E0,0E0,0E0,0E0,0E0,0E0,0E0,0E0,0E0,0E0,0E0,0E0,0E0,0E0,0E0,0E0,0E0,0E0,0E0,0E0,0E0,0E0,0E0,0E0,0E0,0E0,0E0,0E0,0E0],"parents":[2147483647,0,0,1,1,2,2,3,3,4,4,5,5,6,6,7,7,8,8,9,9,10,10,11,11,12,12,13,13,14,14,15,15,16,16,17,17,18,18,19,19,20,20,21,21,22,22,23,23,24,24,25,25,26,26,27,27,28,28,29,29,30,30],"right_children":[2,4,6,8,10,12,14,16,18,20,22,24,26,28,30,32,34,36,38,40,42,44,46,48,50,52,54,56,58,60,62,-1,-1,-1,-1,-1,-1,-1,-1,-1,-1,-1,-1,-1,-1,-1,-1,-1,-1,-1,-1,-1,-1,-1,-1,-1,-1,-1,-1,-1,-1,-1,-1],"split_conditions":[-4.373833E-1,4.4683814E-3,-1.3398379E-2,4.373312E-3,3.4451485E-5,9.285867E-2,-1.0182619E-2,4.2162883E-1,1.00001E0,3.4332275E-5,1.05679035E-4,-4.3735868E-1,-2.7672619E-2,-2.808357E-1,-3.388991E-1,6.7174435E-5,4.8441023E-1,-2.3000598E-2,-7.312414E-2,3.903768E-1,9.296626E-2,8.677232E-2,-4.2714804E-2,-4.061018E-1,-3.5773367E-2,5.2571297E-5,4.1902065E-5,-3.9482206E-2,-3.7476593E-1,-2.1743298E-2,-3.0119479E-2,-6.0613756E-4,-2.5344854E-3,-2.6950643E-3,-6.112327E-3,-2.0950409E-2,-9.953738E-3,6.7326864E-3,-2.6409437E-3,3.240804E-3,-7.6425774E-3,1.8643651E-3,1.9091075E-2,-3.102251E-3,-1.0494069E-2,9.765126E-3,-3.109459E-3,5.0277608E-3,4.1721165E-4,-2.7438519E-3,-3.7012435E-4,-8.993506E-4,4.526411E-4,2.474651E-4,1.8196867E-3,4.2881947E-2,6.772204E-3,-1.5461487E-4,2.9080657E-3,6.758196E-3,-2.1518365E-5,-2.3219394E-3,-3.6620568E-5],"split_indices":[155,304,180,304,0,30,180,160,305,0,0,186,408,161,333,0,147,408,299,11,172,167,181,16,408,0,0,408,420,181,181,0,0,0,0,0,0,0,0,0,0,0,0,0,0,0,0,0,0,0,0,0,0,0,0,0,0,0,0,0,0,0,0],"split_type":[0,0,0,0,0,0,0,0,0,0,0,0,0,0,0,0,0,0,0,0,0,0,0,0,0,0,0,0,0,0,0,0,0,0,0,0,0,0,0,0,0,0,0,0,0,0,0,0,0,0,0,0,0,0,0,0,0,0,0,0,0,0,0],"sum_hessian":[2.038745E6,1.03888E5,1.934857E6,9.841E4,5.478E3,1.728846E6,2.06011E5,9.5925E4,2.485E3,2.609E3,2.869E3,1.10548E6,6.23366E5,8.579E4,1.20221E5,7.8977E4,1.6948E4,1.626E3,8.59E2,1.343E3,1.266E3,2.338E3,5.31E2,7.7465E4,1.028015E6,2.96489E5,3.26877E5,1.5075E4,7.0715E4,7.671E3,1.1255E5,5.948E4,1.9497E4,1.343E4,3.518E3,1.019E3,6.07E2,3.26E2,5.33E2,1.244E3,9.9E1,3.1E2,9.56E2,1.752E3,5.86E2,3.29E2,2.02E2,1.4725E4,6.274E4,3.1366E4,9.96649E5,1.03415E5,1.93074E5,1.99779E5,1.27098E5,3.47E2,1.4728E4,2.5519E4,4.5196E4,3.341E3,4.33E3,8.155E3,1.04395E5],"tree_param":{"num_deleted":"0","num_feature":"421","num_nodes":"63","size_leaf_vector":"1"}},{"base_weights":[1.4371962E-5,-2.7208345E-3,6.9824276E-3,2.970002E-2,-3.3563739E-3,2.3098338E-2,5.3614853E-3,8.216478E-2,1.9494846E-2,-1.0382483E-2,-5.300823E-4,-5.3046583E-3,3.8481217E-2,1.36265075E-2,1.2993728E-3,3.497638E-2,1.3233037E-1,1.4683432E-2,6.990397E-2,-8.963571E-3,-3.8897682E-2,-8.826269E-3,1.8860599E-3,-1.0589471E-1,1.0732228E-2,9.091912E-2,2.7072411E-2,4.4120442E-2,1.2094891E-2,-2.6140064E-3,1.09567745E-2,1.9828555E-4,5.6462917E-3,6.897845E-3,1.6021078E-2,2.2876693E-3,-4.5440564E-4,3.5038309E-3,9.54685E-3,-4.9101457E-4,-1.4000743E-3,-4.336051E-4,-3.953681E-3,-3.915988E-3,-4.9921166E-4,3.8813797E-3,7.119833E-5,3.5542407E-4,-1.28852725E-2,4.5517264E-3,5.9572473E-4,1.0888858E-2,3.3892507E-3,1.5253423E-3,8.066045E-3,8.7089725E-3,2.5470967E-3,-2.8146853E-4,1.2559757E-3,-1.3348165E-3,1.8605843E-4,3.9193924E-3,5.3292187E-4],"categories":[],"categories_nodes":[],"categories_segments":[],"categories_sizes":[],"default_left":[0,0,0,0,1,0,1,0,1,1,0,0,0,0,0,1,0,0,1,0,0,0,0,1,0,0,1,0,0,0,0,0,0,0,0,0,0,0,0,0,0,0,0,0,0,0,0,0,0,0,0,0,0,0,0,0,0,0,0,0,0,0,0],"id":21,"left_children":[1,3,5,7,9,11,13,15,17,19,21,23,25,27,29,31,33,35,37,39,41,43,45,47,49,51,53,55,57,59,61,-1,-1,-1,-1,-1,-1,-1,-1,-1,-1,-1,-1,-1,-1,-1,-1,-1,-1,-1,-1,-1,-1,-1,-1,-1,-1,-1,-1,-1,-1,-1,-1],"loss_changes":[3.88543E1,3.0164E1,1.5010931E1,1.5064657E1,2.851192E1,2.2946114E1,1.752983E1,1.0837061E1,5.7117853E0,1.6663246E1,2.0524778E1,2.976715E1,2.0374043E1,8.033867E0,1.3231161E1,2.435524E0,6.3783607E0,5.299838E0,2.493185E0,9.395157E0,5.090311E0,2.5357292E1,3.64147E1,1.2863491E1,2.5317535E0,1.1610149E1,1.7293928E1,6.780653E0,6.8546696E0,1.57211075E1,1.6631695E1,0E0,0E0,0E0,0E0,0E0,0E0,0E0,0E0,0E0,0E0,0E0,0E0,0E0,0E0,0E0,0E0,0E0,0E0,0E0,0E0,0E0,0E0,0E0,0E0,0E0,0E0,0E0,0E0,0E0,0E0,0E0,0E0],"parents":[2147483647,0,0,1,1,2,2,3,3,4,4,5,5,6,6,7,7,8,8,9,9,10,10,11,11,12,12,13,13,14,14,15,15,16,16,17,17,18,18,19,19,20,20,21,21,22,22,23,23,24,24,25,25,26,26,27,27,28,28,29,29,30,30],"right_children":[2,4,6,8,10,12,14,16,18,20,22,24,26,28,30,32,34,36,38,40,42,44,46,48,50,52,54,56,58,60,62,-1,-1,-1,-1,-1,-1,-1,-1,-1,-1,-1,-1,-1,-1,-1,-1,-1,-1,-1,-1,-1,-1,-1,-1,-1,-1,-1,-1,-1,-1,-1,-1],"split_conditions":[2.1810627E-1,-4.8434913E-1,-2.092743E-2,-4.6870074E-1,-2.6224107E-1,-5.8999985E-2,-1.24336034E-1,-3.4345537E-1,2.018869E-3,4.686345E-1,-1.2696394E-1,-1.1847481E-1,-2.4994195E-2,-4.5301756E-1,7.6016188E-3,-4.8437637E-1,1.00001E0,-3.9039794E-1,-3.0344456E-2,7.420778E-5,-2.1810111E-1,-7.8855544E-2,-1.24874055E-1,-1.54749155E-2,-3.4341347E-1,-2.0905137E-2,4.7181845E-3,-4.0604943E-1,-1.3206628E-1,1.55233145E-2,-1.6733423E-1,1.9828555E-4,5.6462917E-3,6.897845E-3,1.6021078E-2,2.2876693E-3,-4.5440564E-4,3.5038309E-3,9.54685E-3,-4.9101457E-4,-1.4000743E-3,-4.336051E-4,-3.953681E-3,-3.915988E-3,-4.9921166E-4,3.8813797E-3,7.119833E-5,3.5542407E-4,-1.28852725E-2,4.5517264E-3,5.9572473E-4,1.0888858E-2,3.3892507E-3,1.5253423E-3,8.066045E-3,8.7089725E-3,2.5470967E-3,-2.8146853E-4,1.2559757E-3,-1.3348165E-3,1.8605843E-4,3.9193924E-3,5.3292187E-4],"split_indices":[19,4,297,187,26,289,4,17,184,420,25,394,289,186,183,371,418,22,159,0,16,184,25,251,393,245,251,12,25,251,395,0,0,0,0,0,0,0,0,0,0,0,0,0,0,0,0,0,0,0,0,0,0,0,0,0,0,0,0,0,0,0,0],"split_type":[0,0,0,0,0,0,0,0,0,0,0,0,0,0,0,0,0,0,0,0,0,0,0,0,0,0,0,0,0,0,0,0,0,0,0,0,0,0,0,0,0,0,0,0,0,0,0,0,0,0,0,0,0,0,0,0,0,0,0,0,0,0,0],"sum_hessian":[2.038617E6,1.463959E6,5.74658E5,2.8144E4,1.435815E6,5.2514E4,5.22144E5,4.581E3,2.3563E4,4.11879E5,1.023936E6,1.8449E4,3.4065E4,1.72057E5,3.50087E5,2.362E3,2.219E3,2.1512E4,2.051E3,3.92358E5,1.9521E4,2.30948E5,7.92988E5,2.536E3,1.5913E4,6.085E3,2.798E4,8.226E3,1.63831E5,2.49132E5,1.00955E5,1.163E3,1.199E3,1.169E3,1.05E3,1.3335E4,8.177E3,1.23E3,8.21E2,2.76177E5,1.16181E5,3.632E3,1.5889E4,1.6852E4,2.14096E5,1.8471E4,7.74517E5,7.48E2,1.788E3,1.263E3,1.465E4,3.505E3,2.58E3,2.4685E4,3.295E3,1.593E3,6.633E3,2.4529E4,1.39302E5,6.6794E4,1.82338E5,1.1813E4,8.9142E4],"tree_param":{"num_deleted":"0","num_feature":"421","num_nodes":"63","size_leaf_vector":"1"}},{"base_weights":[-5.5960023E-5,1.1249733E-3,-1.7571563E-2,-1.9751524E-3,8.958559E-3,-2.7235225E-2,6.697032E-3,-7.6122335E-3,3.3525724E-3,1.9347176E-2,1.1206336E-3,1.0055959E-2,-3.458063E-2,1.6278267E-2,-3.516407E-2,-5.2762195E-3,-7.518344E-2,4.7922176E-3,-7.993789E-2,4.699081E-3,3.8899656E-2,-2.1914443E-2,6.7680283E-3,-3.759618E-2,2.4336442E-2,-2.1281978E-2,-5.6071114E-2,6.585608E-2,9.583555E-3,-7.2495766E-2,-2.0481177E-2,1.1786958E-3,-6.827592E-4,-1.5769627E-2,1.3162718E-4,6.409523E-4,-2.476848E-3,-1.0799773E-2,-4.5369384E-3,-1.1622075E-3,1.0341792E-3,5.138684E-3,1.688782E-3,5.5522053E-3,-2.457115E-3,5.224508E-3,3.4242633E-4,-4.178967E-3,7.4802054E-4,7.6607807E-4,6.56454E-3,-2.5450669E-3,2.81449E-3,-2.0615663E-3,-6.07526E-3,1.3865132E-3,7.0631253E-3,6.1671115E-3,6.7797094E-4,-5.1274854E-3,-9.667785E-3,-9.172746E-3,-1.1076074E-3],"categories":[],"categories_nodes":[],"categories_segments":[],"categories_sizes":[],"default_left":[1,1,0,0,0,0,1,0,1,1,0,0,0,0,0,0,0,0,0,0,1,0,0,0,0,0,1,1,0,1,0,0,0,0,0,0,0,0,0,0,0,0,0,0,0,0,0,0,0,0,0,0,0,0,0,0,0,0,0,0,0,0,0],"id":22,"left_children":[1,3,5,7,9,11,13,15,17,19,21,23,25,27,29,31,33,35,37,39,41,43,45,47,49,51,53,55,57,59,61,-1,-1,-1,-1,-1,-1,-1,-1,-1,-1,-1,-1,-1,-1,-1,-1,-1,-1,-1,-1,-1,-1,-1,-1,-1,-1,-1,-1,-1,-1,-1,-1],"loss_changes":[4.217573E1,4.6388824E1,3.0204655E1,4.110189E1,4.4100033E1,2.5232124E1,1.471132E1,1.0496234E2,8.43647E1,6.67043E1,4.015862E1,1.0316134E1,2.1989594E1,9.904219E0,3.7401934E0,3.4190132E1,1.8885399E2,6.501952E1,1.4970375E1,1.836568E1,4.107869E1,3.7484108E1,3.711815E1,1.8962469E0,9.46956E0,2.2598734E1,1.4535416E1,3.0584993E0,2.636519E0,9.490032E-1,3.186831E0,0E0,0E0,0E0,0E0,0E0,0E0,0E0,0E0,0E0,0E0,0E0,0E0,0E0,0E0,0E0,0E0,0E0,0E0,0E0,0E0,0E0,0E0,0E0,0E0,0E0,0E0,0E0,0E0,0E0,0E0,0E0,0E0],"parents":[2147483647,0,0,1,1,2,2,3,3,4,4,5,5,6,6,7,7,8,8,9,9,10,10,11,11,12,12,13,13,14,14,15,15,16,16,17,17,18,18,19,19,20,20,21,21,22,22,23,23,24,24,25,25,26,26,27,27,28,28,29,29,30,30],"right_children":[2,4,6,8,10,12,14,16,18,20,22,24,26,28,30,32,34,36,38,40,42,44,46,48,50,52,54,56,58,60,62,-1,-1,-1,-1,-1,-1,-1,-1,-1,-1,-1,-1,-1,-1,-1,-1,-1,-1,-1,-1,-1,-1,-1,-1,-1,-1,-1,-1,-1,-1,-1,-1],"split_conditions":[-2.4297535E-3,-1.7109185E-2,-1.51159465E-2,-3.79017E-3,-4.9274266E-3,-3.3596277E-1,-1.0182619E-2,-3.8805902E-3,-1.7428279E-2,1.116097E-3,-4.365653E-3,1.399076E-1,-2.5615573E-2,-1.8679875E-1,-2.3474097E-3,-3.7480542E-1,4.720688E-5,1.0377169E-4,-1.0850161E-1,-1.2416321E-1,-9.294039E-2,-1.18564755E-1,-5.0952733E-2,-1.8354356E-3,-3.2357267E-1,-1.8354356E-3,-2.4961811E-1,-2.6516297E-1,-1.25E-1,2.9633945E-1,-2.7672619E-2,1.1786958E-3,-6.827592E-4,-1.5769627E-2,1.3162718E-4,6.409523E-4,-2.476848E-3,-1.0799773E-2,-4.5369384E-3,-1.1622075E-3,1.0341792E-3,5.138684E-3,1.688782E-3,5.5522053E-3,-2.457115E-3,5.224508E-3,3.4242633E-4,-4.178967E-3,7.4802054E-4,7.6607807E-4,6.56454E-3,-2.5450669E-3,2.81449E-3,-2.0615663E-3,-6.07526E-3,1.3865132E-3,7.0631253E-3,6.1671115E-3,6.7797094E-4,-5.1274854E-3,-9.667785E-3,-9.172746E-3,-1.1076074E-3],"split_indices":[9,180,180,9,9,372,180,9,180,420,9,16,180,186,9,4,0,0,158,397,28,394,181,9,393,9,420,16,332,162,408,0,0,0,0,0,0,0,0,0,0,0,0,0,0,0,0,0,0,0,0,0,0,0,0,0,0,0,0,0,0,0,0],"split_type":[0,0,0,0,0,0,0,0,0,0,0,0,0,0,0,0,0,0,0,0,0,0,0,0,0,0,0,0,0,0,0,0,0,0,0,0,0,0,0,0,0,0,0,0,0,0,0,0,0,0,0,0,0,0,0,0,0,0,0,0,0,0,0],"sum_hessian":[2.038954E6,1.910167E6,1.28787E5,1.36856E6,5.41607E5,9.211E4,3.6677E4,6.64976E5,7.03584E5,2.32904E5,3.08703E5,1.5157E4,7.6953E4,2.9847E4,6.83E3,6.42757E5,2.2219E4,6.91631E5,1.1953E4,1.33153E5,9.9751E4,6.078E4,2.47923E5,3.494E3,1.1663E4,4.7539E4,2.9414E4,3.549E3,2.6298E4,1.926E3,4.904E3,8.124E4,5.61517E5,9.093E3,1.3126E4,6.39608E5,5.2023E4,4.278E3,7.675E3,3.8534E4,9.4619E4,4.6559E4,5.3192E4,4.541E3,5.6239E4,1.1758E4,2.36165E5,2.792E3,7.02E2,9.054E3,2.609E3,4.0975E4,6.564E3,9.674E3,1.974E4,9.25E2,2.624E3,6.44E2,2.5654E4,1.496E3,4.3E2,3.81E2,4.523E3],"tree_param":{"num_deleted":"0","num_feature":"421","num_nodes":"63","size_leaf_vector":"1"}},{"base_weights":[-1.7478835E-5,-2.5624996E-3,6.4631887E-3,-1.9550279E-2,-1.4462123E-3,2.0808926E-2,5.019406E-3,-7.067657E-3,-2.7354082E-2,-3.4783366E-3,7.4857757E-3,-4.3848483E-3,3.4285348E-2,1.1120674E-2,-1.519018E-4,3.7653644E-2,-1.2449021E-2,-1.2689646E-1,-2.5616156E-2,-2.4713455E-3,-2.8383212E-2,-1.2860577E-2,1.1796052E-2,9.914117E-3,-4.170221E-2,2.8158087E-2,8.579632E-2,3.7164025E-3,1.7586714E-2,-1.8550887E-3,9.0796545E-2,2.1379716E-3,1.4257231E-2,-7.6520635E-4,-5.639247E-3,-1.5983362E-2,-3.8725298E-4,-9.4940735E-4,-2.95586E-3,-3.1450798E-4,1.6339476E-3,-1.4048361E-3,-3.7196379E-3,-4.6668653E-3,-6.3387677E-4,3.0380494E-3,2.6829785E-4,2.5417386E-3,2.5767263E-4,-1.2001059E-2,8.3698204E-4,2.7417871E-3,-6.6945767E-3,4.9443585E-3,1.222588E-2,-9.6733193E-4,9.436885E-4,3.0041893E-3,1.2912323E-3,-9.750535E-5,-8.8459905E-3,1.6489444E-2,1.4944504E-3],"categories":[],"categories_nodes":[],"categories_segments":[],"categories_sizes":[],"default_left":[0,0,0,0,1,1,0,0,0,1,0,1,1,0,1,1,1,1,0,1,0,0,0,0,1,1,0,0,0,1,0,0,0,0,0,0,0,0,0,0,0,0,0,0,0,0,0,0,0,0,0,0,0,0,0,0,0,0,0,0,0,0,0],"id":23,"left_children":[1,3,5,7,9,11,13,15,17,19,21,23,25,27,29,31,33,35,37,39,41,43,45,47,49,51,53,55,57,59,61,-1,-1,-1,-1,-1,-1,-1,-1,-1,-1,-1,-1,-1,-1,-1,-1,-1,-1,-1,-1,-1,-1,-1,-1,-1,-1,-1,-1,-1,-1,-1,-1],"loss_changes":[3.3624783E1,2.7758354E1,1.1905699E1,8.791031E0,2.4931505E1,1.7847027E1,1.6479462E1,8.356603E0,9.599243E0,2.8062338E1,2.232647E1,9.776031E0,1.0802429E1,1.147081E1,4.378739E1,6.0439315E0,5.7369823E0,7.1664076E0,7.2691803E0,2.8919298E1,7.9508057E0,1.01059885E1,4.3569527E1,1.8254526E0,2.6127605E1,1.3671972E1,5.823641E0,1.2518075E1,5.3859024E0,2.0051037E1,3.9395176E1,0E0,0E0,0E0,0E0,0E0,0E0,0E0,0E0,0E0,0E0,0E0,0E0,0E0,0E0,0E0,0E0,0E0,0E0,0E0,0E0,0E0,0E0,0E0,0E0,0E0,0E0,0E0,0E0,0E0,0E0,0E0,0E0],"parents":[2147483647,0,0,1,1,2,2,3,3,4,4,5,5,6,6,7,7,8,8,9,9,10,10,11,11,12,12,13,13,14,14,15,15,16,16,17,17,18,18,19,19,20,20,21,21,22,22,23,23,24,24,25,25,26,26,27,27,28,28,29,29,30,30],"right_children":[2,4,6,8,10,12,14,16,18,20,22,24,26,28,30,32,34,36,38,40,42,44,46,48,50,52,54,56,58,60,62,-1,-1,-1,-1,-1,-1,-1,-1,-1,-1,-1,-1,-1,-1,-1,-1,-1,-1,-1,-1,-1,-1,-1,-1,-1,-1,-1,-1,-1,-1,-1,-1],"split_conditions":[2.1810627E-1,-4.2152467E-1,-2.092743E-2,-8.93583E-2,-1.51159465E-2,-1.0952175E-2,9.025574E-3,3.4451485E-5,3.4213066E-5,-1.6043961E-2,-2.8872043E-2,-1.54749155E-2,-2.3109794E-2,-2.0804346E-2,-2.246666E-2,5.0415993E-3,4.373312E-3,4.4683814E-3,4.8431993E-1,-1.6706347E-2,3.7431717E-5,4.720688E-5,-2.394265E-2,-1.6622281E-1,-1.1847481E-1,-2.3140222E-2,3.9476156E-3,4.839897E-5,-7.460603E-2,-2.253142E-2,-2.3388976E-1,2.1379716E-3,1.4257231E-2,-7.6520635E-4,-5.639247E-3,-1.5983362E-2,-3.8725298E-4,-9.4940735E-4,-2.95586E-3,-3.1450798E-4,1.6339476E-3,-1.4048361E-3,-3.7196379E-3,-4.6668653E-3,-6.3387677E-4,3.0380494E-3,2.6829785E-4,2.5417386E-3,2.5767263E-4,-1.2001059E-2,8.3698204E-4,2.7417871E-3,-6.6945767E-3,4.9443585E-3,1.222588E-2,-9.6733193E-4,9.436885E-4,3.0041893E-3,1.2912323E-3,-9.750535E-5,-8.8459905E-3,1.6489444E-2,1.4944504E-3],"split_indices":[19,155,297,25,180,251,14,2,2,180,337,251,337,180,337,304,304,304,149,180,2,2,337,131,394,337,304,2,182,408,397,0,0,0,0,0,0,0,0,0,0,0,0,0,0,0,0,0,0,0,0,0,0,0,0,0,0,0,0,0,0,0,0],"split_type":[0,0,0,0,0,0,0,0,0,0,0,0,0,0,0,0,0,0,0,0,0,0,0,0,0,0,0,0,0,0,0,0,0,0,0,0,0,0,0,0,0,0,0,0,0,0,0,0,0,0,0,0,0,0,0,0,0,0,0,0,0,0,0],"sum_hessian":[2.03868E6,1.463826E6,5.74854E5,9.0256E4,1.37357E6,5.2561E4,5.22293E5,3.4722E4,5.5534E4,1.118991E6,2.54579E5,1.8317E4,3.4244E4,2.39604E5,2.82689E5,3.728E3,3.0994E4,9.51E2,5.4583E4,1.075507E6,4.3484E4,4.4502E4,2.10077E5,1.3243E4,5.074E3,3.0606E4,3.638E3,1.11701E5,1.27903E5,2.77494E5,5.195E3,3.405E3,3.23E2,2.9148E4,1.846E3,6.32E2,3.19E2,2.1312E4,3.3271E4,1.0176E6,5.7907E4,2.4657E4,1.8827E4,5.039E3,3.9463E4,5.5528E4,1.54549E5,3.379E3,9.864E3,1.728E3,3.346E3,2.946E4,1.146E3,2.475E3,1.163E3,3.6735E4,7.4966E4,1.4953E4,1.1295E5,2.75598E5,1.896E3,2.149E3,3.046E3],"tree_param":{"num_deleted":"0","num_feature":"421","num_nodes":"63","size_leaf_vector":"1"}},{"base_weights":[-6.685023E-5,-1.7502068E-3,8.604054E-3,3.6597913E-4,-8.384327E-3,6.410585E-3,3.1062042E-2,-2.9116962E-3,9.764688E-3,3.014577E-2,-9.626304E-3,2.7331697E-2,4.6717157E-3,6.509485E-2,3.1670923E-3,8.7384967E-4,-2.4294376E-2,2.6518138E-2,2.8195495E-3,1.3761859E-1,1.8363103E-2,-1.5309824E-2,-1.8698126E-3,6.828582E-2,1.8974843E-2,5.6601263E-4,1.4897639E-2,3.206858E-2,9.996969E-2,-2.003585E-2,9.436758E-3,-4.224897E-5,5.7132817E-3,-2.8638307E-3,1.8829557E-3,1.8151739E-3,4.6187155E-3,8.0289395E-4,-9.5588726E-4,4.073921E-3,1.654131E-2,-1.4571511E-3,2.8444848E-3,-6.2111155E-3,-1.0926108E-3,1.6594176E-3,-7.499305E-4,